Language model created by QuickLM on Sat May 24 20:05:01 EDT 2014
Copyright (c) 1996-2010 Carnegie Mellon University and Alexander I. Rudnicky

The model is in standard ARPA format, designed by Doug Paul while he was at MITRE.

The code that was used to produce this language model is available in Open Source.
Please visit http://www.speech.cs.cmu.edu/tools/ for more information

The (fixed) discount mass is 0.5. The backoffs are computed using the ratio method.
This model based on a corpus of 373 sentences and 275 words

\data\
ngram 1=275
ngram 2=709
ngram 3=887

\1-grams:
-1.0743 </s> -0.3010
-1.0743 <s> -0.2365
-2.3036 A -0.2971
-3.3450 ABOUT -0.2955
-3.3450 AFTERNOON -0.2611
-3.6460 AGE -0.2628
-2.5668 AIR -0.2999
-3.6460 ALBUM -0.2628
-3.6460 ALL -0.2872
-2.5668 AM -0.2562
-3.6460 AN -0.2999
-3.6460 ANSWER -0.2628
-3.6460 ANY -0.3007
-3.6460 ANYTHING -0.3007
-2.0897 ARE -0.2696
-3.6460 AREA -0.2628
-3.6460 AROUND -0.2628
-3.3450 AT -0.2623
-3.6460 AWARE -0.3003
-3.6460 AWAY -0.2628
-3.6460 BACK -0.3000
-3.6460 BACKYARD -0.2628
-3.6460 BASEMENT -0.2628
-3.6460 BE -0.3009
-3.0440 BECAUSE -0.2971
-3.3450 BEDROOM -0.2628
-3.6460 BEEN -0.2628
-3.6460 BELIEVE -0.2967
-3.6460 BIRTH -0.3006
-3.6460 BORN -0.2628
-3.6460 BYE -0.2628
-2.4419 CAN -0.2548
-3.3450 CANCEL -0.3001
-3.6460 CHARGING -0.3009
-3.6460 CINEMA -0.2628
-3.1689 CLOSE -0.2872
-3.3450 COLD -0.2581
-3.3450 COME -0.2626
-2.5668 CONDITIONING -0.2576
-3.6460 CORRIDOR -0.2628
-3.6460 CORRIDORS -0.2628
-3.6460 CREATED -0.2937
-3.6460 CREATOR -0.2628
-3.6460 CUP -0.3003
-3.6460 CURRENT -0.3006
-3.0440 CURTAINS -0.2623
-3.6460 CUTE -0.2628
-3.0440 DAY -0.2611
-3.0440 DID -0.2937
-3.6460 DIE -0.2628
-2.8679 DIM -0.2862
-3.1689 DINING -0.2999
-2.0662 DO -0.2501
-2.8679 DOING -0.2611
-2.9470 DON’T -0.2616
-3.1689 DOWN -0.2476
-3.0440 DRAPES -0.2623
-3.6460 EAT -0.2628
-3.6460 EMOTION -0.2628
-3.6460 ENJOY -0.3001
-3.6460 ENTERTAINMENT -0.2999
-3.6460 ENTIRE -0.3009
-3.6460 ENTRANCE -0.2628
-3.3450 EVENING -0.2611
-3.6460 EVERY -0.3006
-3.6460 FAMILY -0.2999
-2.6918 FAVORITE -0.2975
-3.1689 FEED -0.2628
-3.1689 FEEL -0.2623
-3.6460 FEELING -0.2628
-3.6460 FEELINGS -0.2628
-3.6460 FIRST -0.3008
-3.6460 FISH -0.2975
-3.6460 FIVE -0.3005
-3.3450 FLOOR -0.2628
-3.6460 FOOD -0.2628
-2.6046 FOR -0.2970
-2.7429 FORECAST -0.2981
-3.3450 FORGET -0.2959
-3.3450 FORMAL -0.3004
-3.6460 FOUR -0.3005
-3.6460 FOYER -0.2628
-3.3450 FREEZING -0.2581
-3.3450 FROM -0.2628
-3.6460 FRONT -0.3009
-3.6460 FUCK -0.2987
-3.6460 FUNCTION -0.2973
-3.6460 FUNCTIONS -0.2995
-3.1689 FUNNY -0.2628
-3.1689 FUTURE -0.2628
-3.6460 GARAGE -0.2628
-3.6460 GARDEN -0.2628
-3.0440 GET -0.2982
-3.6460 GLASS -0.3003
-3.1689 GO -0.2999
-3.3450 GOD -0.2628
-2.6918 GOOD -0.2990
-3.6460 GREAT -0.2999
-3.6460 GROUND -0.3008
-3.6460 GUESS -0.3004
-3.6460 HALLWAY -0.2628
-3.6460 HALLWAYS -0.2628
-3.3450 HAVE -0.2936
-3.3450 HEADLINES -0.2628
-3.6460 HEAR -0.2982
-3.0440 HELLO -0.2597
-3.3450 HELPFUL -0.2628
-2.8009 HERE -0.2628
-3.0440 HEY -0.2597
-3.0440 HI -0.2597
-3.3450 HOME -0.3007
-3.3450 HOT -0.2581
-3.6460 HOUSE -0.2628
-2.3673 HOW -0.2802
-3.1689 HUMAN -0.2628
-3.3450 HURT -0.2960
-2.0440 I -0.2517
-3.6460 IMMEDIATELY -0.2628
-2.0026 IN -0.2847
-3.3450 INFORMAL -0.3004
-3.1689 INTERESTING -0.2628
-3.6460 INVENTED -0.2937
-1.9833 IS -0.2761
-2.5321 IT -0.2578
-3.3450 JOKE -0.2628
-3.3450 JUST -0.2968
-3.6460 KITCHEN -0.2628
-2.9470 KNOW -0.2628
-2.9470 LARGE -0.2999
-3.1689 LIFE -0.2628
-2.7429 LIGHT -0.2576
-2.4699 LIGHTS -0.2566
-2.7429 LIKE -0.2562
-3.6460 LISTEN -0.3000
-3.6460 LISTENING -0.3000
-3.1689 LIVING -0.2999
-3.6460 LOBBY -0.2628
-3.6460 LOOK -0.3003
-2.8009 LOVE -0.2481
-3.6460 LOWER -0.2872
-3.6460 MACHINE -0.2628
-3.6460 MACHINES -0.3009
-3.6460 MAKES -0.2937
-3.3450 MANY -0.3008
-3.6460 MASTER -0.3008
-2.1836 ME -0.2386
-3.6460 MEAL -0.2628
-3.6460 MEAN -0.2628
-3.3450 MEANING -0.3003
-3.3450 MEDIUM -0.2999
-3.0440 MIND -0.2628
-3.6460 MORE -0.2628
-3.3450 MORNING -0.2611
-3.6460 MOVIE -0.2628
-2.6918 MUSIC -0.2628
-2.5321 MY -0.2975
-3.6460 NAME -0.2628
-3.3450 NEED -0.2989
-3.3450 NEVER -0.3006
-3.1689 NEW -0.2956
-2.6046 NEWS -0.2623
-3.6460 NICE -0.2628
-2.8679 NO -0.2563
-2.6460 NOT -0.2604
-2.9470 NOW -0.2628
-2.8009 OF -0.2856
-2.2658 OFF -0.2476
-3.6460 OLD -0.2975
-2.2658 ON -0.2476
-3.1689 OPEN -0.2872
-2.6046 ORDER -0.2943
-3.0440 OUT -0.2859
-3.3450 OVER -0.2865
-3.3450 PARCHED -0.2628
-3.6460 PAUSE -0.2872
-3.3450 PICKS -0.2994
-2.8679 PIZZA -0.2628
-2.8679 PIZZAS -0.2628
-3.6460 PLACE -0.3009
-3.3450 PLAY -0.2999
-3.6460 POOL -0.3009
-3.3450 PRICES -0.2628
-3.6460 PROGRAM -0.2628
-3.6460 PROVE -0.2998
-3.3450 PURPOSE -0.2620
-3.6460 QUIET -0.2628
-3.6460 RAISE -0.2872
-2.4419 READ -0.2825
-3.6460 REALLY -0.2628
-3.3450 RECOGNIZE -0.2976
-3.0440 REPORT -0.2999
-2.9470 RIGHT -0.2986
-2.8679 ROBOT -0.2628
-3.1689 ROBOTS -0.3006
-3.6460 ROOF -0.2628
-2.5668 ROOM -0.2628
-3.6460 RUDE -0.2628
-2.9470 SAID -0.2612
-3.3450 SAY -0.3004
-3.3450 SAYING -0.2628
-3.6460 SEA -0.2628
-3.6460 SECRET -0.3003
-3.3450 SEE -0.2842
-3.6460 SERVE -0.2628
-3.0440 SET -0.2872
-3.0440 SHADES -0.2623
-3.1689 SHOW -0.2628
-3.6460 SHUT -0.3004
-3.6460 SKY -0.2628
-3.3450 SLEEP -0.2628
-3.3450 SMALL -0.2999
-3.1689 SMART -0.2583
-2.8679 SO -0.2624
-3.3450 SOME -0.2999
-2.8679 SOMETHING -0.3004
-3.6460 SONG -0.2628
-3.1689 SPECIAL -0.2622
-3.6460 STARS -0.2975
-3.6460 STATION -0.2628
-3.0440 STOCK -0.3006
-2.8679 STOCKS -0.2998
-2.8009 STOP -0.2872
-3.3450 SURE -0.2628
-2.3450 SWITCH -0.2823
-2.6460 T.V -0.2560
-3.6460 TAKE -0.3008
-3.6460 TALK -0.3000
-2.6918 TELEVISION -0.2573
-2.6918 TELL -0.2982
-3.0440 TEMPERATURE -0.2628
-3.3450 THANK -0.2937
-3.3450 THANKS -0.2611
-2.6918 THAT -0.2575
-1.5030 THE -0.2847
-3.3450 THEATER -0.2615
-3.6460 THEM -0.3009
-2.5321 THERE -0.2609
-3.3450 THINK -0.3004
-3.1689 THIRSTY -0.2628
-3.6460 THREE -0.3005
-3.3450 TIME -0.2628
-2.6460 TO -0.2408
-2.6046 TODAY -0.2628
-2.7429 TOMORROW -0.2628
-3.3450 TRAVEL -0.2957
-2.2843 TURN -0.2813
-3.1689 TWO -0.3001
-2.6918 UNDERSTAND -0.2931
-3.3450 UNDERSTANDING -0.2597
-3.3450 UNIQUE -0.2622
-3.6460 UNIVERSE -0.2628
-2.8679 UP -0.2476
-3.3450 VACATION -0.2628
-3.6460 WANT -0.3000
-3.3450 WARM -0.2581
-3.1689 WAS -0.2984
-3.1689 WATER -0.2628
-3.6460 WE -0.2628
-2.3907 WEATHER -0.2586
-3.6460 WERE -0.2937
-2.0125 WHAT -0.2427
-3.6460 WHAT’S -0.3004
-3.6460 WHEN -0.3009
-2.6046 WHERE -0.2889
-2.8679 WHO -0.2876
-3.6460 WHY -0.3000
-3.6460 WILL -0.3009
-3.6460 WORLD -0.2628
-3.3450 WOULD -0.2996
-3.3450 WRONG -0.2627
-2.4419 XAVIER -0.2628
-3.6460 YARD -0.2628
-2.8009 YES -0.2526
-1.7768 YOU -0.2403
-2.4419 YOUR -0.2991

\2-grams:
-2.8727 <s> ABOUT -0.1761
-2.5717 <s> AIR 0.0000
-2.8727 <s> ALL 0.0000
-1.7588 <s> ARE -0.1427
-2.8727 <s> BE 0.0000
-2.2707 <s> BECAUSE 0.0000
-1.7588 <s> CAN -0.0263
-2.8727 <s> CANCEL 0.0000
-2.3956 <s> CLOSE 0.0000
-2.3956 <s> DID 0.0000
-2.0946 <s> DIM 0.0000
-1.5505 <s> DO -0.1104
-2.8727 <s> EVERY 0.0000
-2.5717 <s> FORGET 0.0000
-2.8727 <s> FUCK 0.0000
-2.2707 <s> GET 0.0000
-2.3956 <s> GO 0.0000
-1.9185 <s> GOOD 0.0000
-2.2707 <s> HELLO 0.0000
-2.2707 <s> HEY 0.0000
-2.2707 <s> HI 0.0000
-1.5940 <s> HOW 0.0000
-1.5303 <s> I -0.0512
-2.8727 <s> IMMEDIATELY 0.0000
-1.3413 <s> IN -0.0555
-2.5717 <s> IS -0.2915
-1.9696 <s> IT -0.1413
-2.8727 <s> JUST -0.1761
-2.8727 <s> LOOK 0.0000
-2.8727 <s> LOWER 0.0000
-2.8727 <s> NEVER 0.0000
-2.0946 <s> NO 0.0000
-2.8727 <s> NOT -0.2788
-2.3956 <s> OPEN 0.0000
-1.8727 <s> ORDER -0.0378
-2.8727 <s> OVER -0.1761
-2.8727 <s> PAUSE 0.0000
-2.8727 <s> PLACE 0.0000
-2.5717 <s> PLAY 0.0000
-2.8727 <s> PROVE 0.0000
-2.8727 <s> RAISE 0.0000
-1.6686 <s> READ 0.0000
-2.8727 <s> RIGHT -0.2553
-2.5717 <s> SAY 0.0000
-2.2707 <s> SET 0.0000
-2.8727 <s> SHUT 0.0000
-2.0276 <s> STOP 0.0000
-1.5717 <s> SWITCH 0.0000
-2.8727 <s> TALK 0.0000
-2.0946 <s> TELL 0.0000
-2.5717 <s> THANK 0.0000
-2.5717 <s> THANKS 0.0000
-2.3956 <s> THAT -0.2218
-1.5110 <s> TURN 0.0000
-1.3164 <s> WHAT -0.0567
-2.8727 <s> WHAT’S 0.0000
-2.8727 <s> WHEN 0.0000
-1.8313 <s> WHERE 0.0000
-2.2707 <s> WHO -0.1249
-2.8727 <s> WHY 0.0000
-2.5717 <s> WRONG 0.0000
-2.0276 <s> YES -0.0000
-2.2707 <s> YOU -0.2831
-1.6435 A CUP 0.0000
-1.6435 A GLASS 0.0000
-1.3424 A HUMAN 0.0000
-1.3424 A JOKE 0.0000
-1.6435 A LARGE -0.2553
-1.6435 A MACHINE 0.0000
-1.6435 A MEDIUM -0.1761
-1.1663 A PIZZA 0.0000
-1.6435 A PROGRAM 0.0000
-1.1663 A ROBOT 0.0000
-1.6435 A SMALL -0.1761
-1.6435 A SMART -0.2218
-1.6435 A SPECIAL -0.2218
-1.6435 A UNIQUE -0.1761
-1.3424 A VACATION 0.0000
-0.6021 ABOUT MY -0.2840
-0.6021 ABOUT WHAT -0.2960
-0.6021 AFTERNOON </s> -0.3010
-0.6021 AFTERNOON XAVIER 0.0000
-0.3010 AGE </s> -0.3010
-0.3010 AIR CONDITIONING 0.0000
-0.3010 ALBUM </s> -0.3010
-0.3010 ALL THE -0.2995
-1.0792 AM </s> -0.3010
-1.3802 AM AWARE 0.0000
-1.3802 AM I -0.2956
-1.3802 AM PARCHED 0.0000
-1.3802 AM RIGHT -0.2553
-1.0792 AM SAYING 0.0000
-1.3802 AM SO -0.2632
-1.0792 AM SURE 0.0000
-1.3802 AM THIRSTY 0.0000
-0.3010 AN ORDER -0.2808
-0.3010 ANSWER </s> -0.3010
-0.3010 ANY NEW -0.2218
-0.3010 ANYTHING NEW -0.1249
-1.8573 ARE A -0.2910
-1.5563 ARE IN -0.0641
-1.0122 ARE MY -0.1165
-1.8573 ARE NOT -0.2553
-1.8573 ARE SO -0.2632
-1.8573 ARE THE -0.2883
-1.8573 ARE WE 0.0000
-0.5149 ARE YOU -0.2099
-0.3010 AREA </s> -0.3010
-0.3010 AROUND </s> -0.3010
-0.6021 AT </s> -0.3010
-0.6021 AT NOW 0.0000
-0.3010 AWARE OF -0.2688
-0.3010 AWAY </s> -0.3010
-0.3010 BACK TO -0.2788
-0.3010 BACKYARD </s> -0.3010
-0.3010 BASEMENT </s> -0.3010
-0.3010 BE QUIET 0.0000
-0.3010 BECAUSE I -0.2613
-0.3010 BEDROOM </s> -0.3010
-0.3010 BEEN </s> -0.3010
-0.3010 BELIEVE IN -0.2961
-0.3010 BIRTH DAY -0.0969
-0.3010 BORN </s> -0.3010
-0.3010 BYE </s> -0.3010
-1.5051 CAN </s> -0.3010
-0.3291 CAN YOU -0.2171
-0.3010 CANCEL THAT -0.1249
-0.3010 CHARGING STATION 0.0000
-0.3010 CINEMA </s> -0.3010
-0.3010 CLOSE THE -0.2819
-0.6021 COLD </s> -0.3010
-0.6021 COLD IN -0.2808
-0.6021 COME </s> -0.3010
-0.6021 COME FROM 0.0000
-0.7782 CONDITIONING </s> -0.3010
-0.7782 CONDITIONING OFF -0.1513
-0.7782 CONDITIONING ON -0.1639
-0.3010 CORRIDOR </s> -0.3010
-0.3010 CORRIDORS </s> -0.3010
-0.3010 CREATED YOU -0.2738
-0.3010 CREATOR </s> -0.3010
-0.3010 CUP OF -0.2341
-0.3010 CURRENT STOCK -0.1761
-0.4260 CURTAINS </s> -0.3010
-0.9031 CURTAINS RIGHT -0.1461
-0.3010 CUTE </s> -0.3010
-0.4260 DAY </s> -0.3010
-0.9031 DAY XAVIER 0.0000
-0.3010 DID YOU -0.2611
-0.3010 DIE </s> -0.3010
-1.0792 DIM DOWN -0.1249
-0.6021 DIM THE -0.2769
-1.0792 DIM THEM 0.0000
-1.0792 DIM UP -0.2218
-0.3010 DINING ROOM 0.0000
-1.2788 DO </s> -0.3010
-1.4037 DO IT -0.2083
-1.1027 DO NOT -0.1139
-1.4037 DO ROBOTS 0.0000
-1.5798 DO SOMETHING 0.0000
-1.8808 DO TODAY 0.0000
-0.6021 DO YOU -0.2063
-0.4771 DOING </s> -0.3010
-1.0792 DOING NOW 0.0000
-1.0792 DOING TODAY 0.0000
-1.0000 DON’T </s> -0.3010
-0.6990 DON’T KNOW 0.0000
-1.0000 DON’T MIND 0.0000
-1.0000 DON’T THINK 0.0000
-0.7782 DOWN </s> -0.3010
-0.4771 DOWN THE -0.2703
-0.4260 DRAPES </s> -0.3010
-0.9031 DRAPES RIGHT -0.1461
-0.3010 EAT </s> -0.3010
-0.3010 EMOTION </s> -0.3010
-0.3010 ENJOY MUSIC 0.0000
-0.3010 ENTERTAINMENT ROOM 0.0000
-0.3010 ENTIRE HOUSE 0.0000
-0.3010 ENTRANCE </s> -0.3010
-0.6021 EVENING </s> -0.3010
-0.6021 EVENING XAVIER 0.0000
-0.3010 EVERY DAY -0.0969
-0.3010 FAMILY ROOM 0.0000
-1.2553 FAVORITE ALBUM 0.0000
-1.2553 FAVORITE FOOD 0.0000
-1.2553 FAVORITE MEAL 0.0000
-1.2553 FAVORITE MOVIE 0.0000
-1.2553 FAVORITE MUSIC 0.0000
-1.2553 FAVORITE SHOW 0.0000
-1.2553 FAVORITE SONG 0.0000
-1.2553 FAVORITE T.V -0.2788
-1.2553 FAVORITE TELEVISION -0.2762
-0.3010 FEED </s> -0.3010
-0.7782 FEEL </s> -0.3010
-0.7782 FEEL PARCHED 0.0000
-0.7782 FEEL THIRSTY 0.0000
-0.3010 FEELING </s> -0.3010
-0.3010 FEELINGS </s> -0.3010
-0.3010 FIRST FLOOR 0.0000
-0.3010 FISH ARE -0.2888
-0.3010 FIVE LARGE -0.0792
-0.3010 FLOOR </s> -0.3010
-0.3010 FOOD </s> -0.3010
-1.3424 FOR A -0.2704
-0.6435 FOR TODAY 0.0000
-0.6435 FOR TOMORROW 0.0000
-0.4260 FORECAST FOR -0.0378
-1.2041 FORECAST TODAY 0.0000
-1.2041 FORECAST TOMORROW 0.0000
-0.6021 FORGET THAT -0.1249
-0.6021 FORGET WHAT -0.2750
-0.6021 FORMAL DINING 0.0000
-0.6021 FORMAL LIVING 0.0000
-0.3010 FOUR LARGE -0.0792
-0.3010 FOYER </s> -0.3010
-0.6021 FREEZING </s> -0.3010
-0.6021 FREEZING IN -0.2808
-0.3010 FROM </s> -0.3010
-0.3010 FRONT YARD 0.0000
-0.3010 FUCK OFF -0.1513
-0.3010 FUNCTION DO -0.1761
-0.3010 FUNCTIONS CAN -0.0263
-0.3010 FUNNY </s> -0.3010
-0.3010 FUTURE </s> -0.3010
-0.3010 GARAGE </s> -0.3010
-0.3010 GARDEN </s> -0.3010
-0.3010 GET ME -0.2452
-0.3010 GLASS OF -0.2341
-0.7782 GO AWAY 0.0000
-0.7782 GO BACK 0.0000
-0.7782 GO TO -0.2788
-0.3010 GOD </s> -0.3010
-0.9542 GOOD AFTERNOON 0.0000
-1.2553 GOOD BYE 0.0000
-1.2553 GOOD DAY -0.2430
-0.9542 GOOD EVENING 0.0000
-0.9542 GOOD MORNING 0.0000
-1.2553 GOOD TO -0.2788
-0.3010 GREAT ROOM 0.0000
-0.3010 GROUND FLOOR 0.0000
-0.3010 GUESS SO -0.1249
-0.3010 HALLWAY </s> -0.3010
-0.3010 HALLWAYS </s> -0.3010
-0.6021 HAVE FEELINGS 0.0000
-0.6021 HAVE YOU -0.2981
-0.3010 HEADLINES </s> -0.3010
-0.3010 HEAR ME -0.2097
-0.9031 HELLO </s> -0.3010
-0.6021 HELLO THERE -0.0621
-0.9031 HELLO XAVIER 0.0000
-0.3010 HELPFUL </s> -0.3010
-0.3010 HERE </s> -0.3010
-0.9031 HEY </s> -0.3010
-0.6021 HEY THERE -0.0621
-0.9031 HEY XAVIER 0.0000
-0.9031 HI </s> -0.3010
-0.6021 HI THERE -0.0621
-0.9031 HI XAVIER 0.0000
-0.6021 HOME CINEMA 0.0000
-0.6021 HOME THEATER -0.1761
-0.6021 HOT </s> -0.3010
-0.6021 HOT IN -0.2808
-0.3010 HOUSE </s> -0.3010
-0.7347 HOW ARE -0.0772
-1.5798 HOW COME -0.1761
-1.5798 HOW DO -0.1761
-1.5798 HOW HAVE -0.1761
-1.1027 HOW IS -0.2293
-1.2788 HOW MANY 0.0000
-1.5798 HOW OLD 0.0000
-1.5798 HOW SMART -0.2218
-1.5798 HOW WAS -0.2218
-1.5798 HOW YOU -0.2921
-0.3010 HUMAN </s> -0.3010
-0.6021 HURT A -0.2808
-0.6021 HURT ME -0.2097
-1.9031 I </s> -0.3010
-0.8617 I AM -0.0348
-1.9031 I CAN -0.2872
-1.0580 I DO -0.2398
-1.2041 I DON’T 0.0000
-1.6021 I FEEL -0.1249
-1.9031 I GUESS 0.0000
-1.9031 I JUST -0.1761
-1.9031 I LIKE -0.2730
-1.6021 I LOVE -0.2341
-1.9031 I NEED 0.0000
-1.3010 I SAID 0.0000
-1.9031 I WANT 0.0000
-1.6021 I WOULD 0.0000
-0.3010 IMMEDIATELY </s> -0.3010
-1.9445 IN GOD 0.0000
-1.3424 IN HERE 0.0000
-1.9445 IN MY -0.2840
-0.3763 IN THE -0.2111
-1.9445 IN TIME 0.0000
-0.6021 INFORMAL DINING 0.0000
-0.6021 INFORMAL LIVING 0.0000
-0.3010 INTERESTING </s> -0.3010
-0.3010 INVENTED YOU -0.2738
-1.6628 IS A -0.2704
-1.6628 IS COLD 0.0000
-1.6628 IS FREEZING 0.0000
-1.9638 IS GOD 0.0000
-1.6628 IS HOT 0.0000
-1.9638 IS MY -0.1871
-1.9638 IS NEW -0.1249
-1.9638 IS NICE 0.0000
-1.9638 IS ON -0.1880
-0.8177 IS THE -0.2652
-1.6628 IS THERE -0.2663
-1.9638 IS UP -0.1249
-1.6628 IS WARM 0.0000
-0.8177 IS YOUR -0.0512
-0.7160 IT </s> -0.3010
-0.5119 IT IS -0.2615
-0.3010 JOKE </s> -0.3010
-0.6021 JUST DO -0.2835
-0.6021 JUST SAID -0.1461
-0.3010 KITCHEN </s> -0.3010
-0.3010 KNOW </s> -0.3010
-1.0000 LARGE PIZZA 0.0000
-0.3979 LARGE PIZZAS 0.0000
-0.3010 LIFE </s> -0.3010
-0.6021 LIGHT </s> -0.3010
-0.9031 LIGHT OFF -0.1513
-0.9031 LIGHT ON -0.1639
-0.6320 LIGHTS </s> -0.3010
-1.4771 LIGHTS DOWN -0.2218
-1.0000 LIGHTS OFF -0.1513
-1.0000 LIGHTS ON -0.1639
-1.4771 LIGHTS UP -0.1249
-1.2041 LIKE </s> -0.3010
-1.2041 LIKE IT -0.2083
-1.2041 LIKE LISTENING 0.0000
-1.2041 LIKE MUSIC 0.0000
-1.2041 LIKE THAT -0.1249
-1.2041 LIKE TO -0.2304
-1.2041 LIKE TODAY 0.0000
-1.2041 LIKE TOMORROW 0.0000
-0.3010 LISTEN TO -0.2553
-0.3010 LISTENING TO -0.2553
-0.3010 LIVING ROOM 0.0000
-0.3010 LOBBY </s> -0.3010
-0.3010 LOOK HERE 0.0000
-0.8451 LOVE </s> -0.3010
-1.1461 LOVE A -0.2808
-1.1461 LOVE ME -0.2097
-1.1461 LOVE TO -0.2304
-0.8451 LOVE YOU -0.2675
-0.3010 LOWER THE -0.2947
-0.3010 MACHINE </s> -0.3010
-0.3010 MACHINES TAKE 0.0000
-0.3010 MAKES YOU -0.2951
-0.6021 MANY FISH 0.0000
-0.6021 MANY STARS 0.0000
-0.3010 MASTER BEDROOM 0.0000
-0.7220 ME </s> -0.3010
-0.9853 ME A -0.2258
-1.7634 ME ABOUT -0.1761
-1.7634 ME SOME -0.1761
-1.4624 ME SOMETHING 0.0000
-0.9853 ME THE -0.2584
-1.7634 ME WHAT -0.1224
-1.7634 ME WHO -0.2218
-0.3010 MEAL </s> -0.3010
-0.3010 MEAN </s> -0.3010
-0.3010 MEANING OF -0.1963
-0.6021 MEDIUM PIZZA 0.0000
-0.6021 MEDIUM PIZZAS 0.0000
-0.3010 MIND </s> -0.3010
-0.3010 MORE </s> -0.3010
-0.6021 MORNING </s> -0.3010
-0.6021 MORNING XAVIER 0.0000
-0.3010 MOVIE </s> -0.3010
-0.3010 MUSIC </s> -0.3010
-1.4150 MY FUTURE 0.0000
-1.1139 MY NEWS -0.2374
-1.4150 MY ROOM 0.0000
-0.9379 MY STOCK 0.0000
-0.6368 MY STOCKS 0.0000
-0.3010 NAME </s> -0.3010
-0.3010 NEED A -0.2808
-0.3010 NEVER MIND 0.0000
-0.4771 NEW IN -0.0641
-0.7782 NEW NEWS -0.1347
-0.4973 NEWS </s> -0.3010
-0.8653 NEWS FEED 0.0000
-1.3424 NEWS HEADLINES 0.0000
-0.3010 NICE </s> -0.3010
-1.0792 NO </s> -0.3010
-1.0792 NO CANCEL 0.0000
-0.7782 NO I -0.2304
-1.0792 NO NEVER 0.0000
-1.0792 NO XAVIER 0.0000
-1.0000 NOT </s> -0.3010
-1.0000 NOT HELPFUL 0.0000
-1.0000 NOT KNOW 0.0000
-1.3010 NOT LIKE -0.2730
-1.3010 NOT MIND 0.0000
-1.3010 NOT REALLY 0.0000
-1.3010 NOT THINK 0.0000
-0.3010 NOW </s> -0.3010
-0.6690 OF LIFE 0.0000
-1.1461 OF THAT -0.1249
-1.1461 OF THE -0.2995
-0.8451 OF WATER 0.0000
-0.5351 OFF </s> -0.3010
-0.6812 OFF THE -0.2149
-0.3010 OLD ARE -0.1427
-0.5673 ON </s> -0.3010
-0.6398 ON THE -0.1994
-0.3010 OPEN THE -0.2819
-0.8653 ORDER A -0.2704
-1.3424 ORDER FIVE 0.0000
-1.3424 ORDER FOR -0.2808
-1.3424 ORDER FOUR 0.0000
-1.3424 ORDER ME -0.2536
-1.3424 ORDER THREE 0.0000
-0.8653 ORDER TWO 0.0000
-0.6021 OUT MY -0.2083
-0.6021 OUT THE -0.2867
-0.6021 OVER HERE 0.0000
-0.6021 OVER THE -0.2995
-0.3010 PARCHED </s> -0.3010
-0.3010 PAUSE THE -0.2979
-0.6021 PICKS DOING -0.1249
-0.6021 PICKS TODAY 0.0000
-0.3010 PIZZA </s> -0.3010
-0.3010 PIZZAS </s> -0.3010
-0.3010 PLACE AN 0.0000
-0.6021 PLAY MUSIC 0.0000
-0.6021 PLAY SOME -0.1761
-0.3010 POOL AREA 0.0000
-0.3010 PRICES </s> -0.3010
-0.3010 PROGRAM </s> -0.3010
-0.3010 PROVE IT -0.2083
-0.6021 PURPOSE </s> -0.3010
-0.6021 PURPOSE OF -0.1963
-0.3010 QUIET </s> -0.3010
-0.3010 RAISE THE -0.2947
-0.8062 READ ME -0.2536
-1.5051 READ MY -0.2663
-0.9031 READ OUT 0.0000
-0.7270 READ THE -0.2584
-0.3010 REALLY </s> -0.3010
-0.6021 RECOGNIZE ME -0.2097
-0.6021 RECOGNIZE WHO -0.2218
-0.3010 REPORT FOR -0.0378
-1.0000 RIGHT HERE 0.0000
-1.0000 RIGHT NOW 0.0000
-0.5229 RIGHT THERE -0.1648
-0.3010 ROBOT </s> -0.3010
-0.7782 ROBOTS DIE 0.0000
-0.7782 ROBOTS EAT 0.0000
-0.7782 ROBOTS SLEEP 0.0000
-0.3010 ROOF </s> -0.3010
-0.3010 ROOM </s> -0.3010
-0.3010 RUDE </s> -0.3010
-0.5229 SAID </s> -0.3010
-1.0000 SAID SO -0.1249
-1.0000 SAID THAT -0.1249
-0.3010 SAY SOMETHING 0.0000
-0.3010 SAYING </s> -0.3010
-0.3010 SEA </s> -0.3010
-0.3010 SECRET OF -0.2688
-0.6021 SEE ME -0.2097
-0.6021 SEE THE -0.2979
-0.3010 SERVE </s> -0.3010
-0.3010 SET THE -0.2601
-0.4260 SHADES </s> -0.3010
-0.9031 SHADES RIGHT -0.1461
-0.3010 SHOW </s> -0.3010
-0.3010 SHUT UP -0.1249
-0.3010 SKY </s> -0.3010
-0.3010 SLEEP </s> -0.3010
-0.6021 SMALL PIZZA 0.0000
-0.6021 SMALL PIZZAS 0.0000
-0.7782 SMART </s> -0.3010
-0.7782 SMART ARE -0.1427
-0.7782 SMART ROBOT 0.0000
-0.4771 SO </s> -0.3010
-1.0792 SO CUTE 0.0000
-1.0792 SO THIRSTY 0.0000
-0.6021 SOME MUSIC 0.0000
-0.6021 SOME WATER 0.0000
-0.6021 SOMETHING FUNNY 0.0000
-0.6021 SOMETHING INTERESTING 0.0000
-0.3010 SONG </s> -0.3010
-0.4771 SPECIAL </s> -0.3010
-0.7782 SPECIAL ROBOT 0.0000
-0.3010 STARS ARE -0.2888
-0.3010 STATION </s> -0.3010
-0.6021 STOCK PICKS 0.0000
-0.6021 STOCK PRICES 0.0000
-0.7782 STOCKS AT 0.0000
-0.7782 STOCKS DOING -0.0669
-0.7782 STOCKS NOW 0.0000
-0.3010 STOP THE -0.2786
-0.3010 SURE </s> -0.3010
-0.9031 SWITCH OFF -0.1996
-0.9031 SWITCH ON -0.1880
-0.6021 SWITCH THE -0.2149
-0.6990 T.V </s> -0.3010
-1.0000 T.V OFF -0.1513
-1.0000 T.V ON -0.1639
-1.3010 T.V ROOM 0.0000
-1.3010 T.V SHOW 0.0000
-0.3010 TAKE OVER -0.1761
-0.3010 TALK TO -0.2788
-0.6532 TELEVISION </s> -0.3010
-0.9542 TELEVISION OFF -0.1513
-0.9542 TELEVISION ON -0.1639
-1.2553 TELEVISION SHOW 0.0000
-0.3010 TELL ME -0.0147
-0.3010 TEMPERATURE </s> -0.3010
-0.3010 THANK YOU -0.2675
-0.6021 THANKS </s> -0.3010
-0.6021 THANKS XAVIER 0.0000
-0.4771 THAT </s> -0.3010
-1.2553 THAT IS -0.2963
-0.9542 THAT WAS -0.1249
-1.4440 THE AIR 0.0000
-2.4440 THE BACKYARD 0.0000
-2.4440 THE BASEMENT 0.0000
-2.4440 THE BEDROOM 0.0000
-2.4440 THE CORRIDOR 0.0000
-2.4440 THE CORRIDORS 0.0000
-2.4440 THE CURRENT 0.0000
-1.8420 THE CURTAINS 0.0000
-2.4440 THE DINING 0.0000
-1.8420 THE DRAPES 0.0000
-2.4440 THE ENTERTAINMENT 0.0000
-2.4440 THE ENTIRE 0.0000
-2.4440 THE ENTRANCE 0.0000
-2.4440 THE FAMILY 0.0000
-2.4440 THE FIRST 0.0000
-2.1430 THE FORMAL 0.0000
-2.4440 THE FOYER 0.0000
-2.4440 THE FRONT 0.0000
-2.1430 THE FUTURE 0.0000
-2.4440 THE GARAGE 0.0000
-2.4440 THE GARDEN 0.0000
-2.4440 THE GREAT 0.0000
-2.4440 THE GROUND 0.0000
-2.4440 THE HALLWAY 0.0000
-2.4440 THE HALLWAYS 0.0000
-2.4440 THE HEADLINES 0.0000
-2.1430 THE HOME 0.0000
-2.1430 THE INFORMAL 0.0000
-2.4440 THE KITCHEN 0.0000
-1.5410 THE LIGHT 0.0000
-1.2680 THE LIGHTS 0.0000
-2.4440 THE LIVING 0.0000
-2.4440 THE LOBBY 0.0000
-2.4440 THE MASTER 0.0000
-2.1430 THE MEANING 0.0000
-2.1430 THE MUSIC 0.0000
-1.5410 THE NEWS 0.0000
-2.4440 THE POOL 0.0000
-2.4440 THE PURPOSE -0.1761
-2.4440 THE ROOF 0.0000
-2.4440 THE SEA 0.0000
-2.4440 THE SECRET 0.0000
-1.8420 THE SHADES 0.0000
-2.4440 THE SKY 0.0000
-1.4898 THE T.V -0.0414
-1.5410 THE TELEVISION -0.0458
-1.8420 THE TEMPERATURE 0.0000
-2.4440 THE THEATER -0.1761
-2.4440 THE TIME 0.0000
-2.4440 THE UNIVERSE 0.0000
-1.1888 THE WEATHER 0.0000
-2.4440 THE WORLD 0.0000
-0.6021 THEATER </s> -0.3010
-0.6021 THEATER ROOM 0.0000
-0.3010 THEM MORE 0.0000
-0.5699 THERE </s> -0.3010
-1.4150 THERE ANY 0.0000
-1.4150 THERE ANYTHING 0.0000
-0.8129 THERE XAVIER 0.0000
-0.3010 THINK SO -0.1249
-0.3010 THIRSTY </s> -0.3010
-0.3010 THREE LARGE -0.0792
-0.3010 TIME </s> -0.3010
-0.8239 TO </s> -0.3010
-1.3010 TO KNOW 0.0000
-1.3010 TO ME -0.2097
-1.0000 TO MUSIC 0.0000
-1.3010 TO SLEEP 0.0000
-1.3010 TO THE -0.2979
-1.3010 TO YOUR -0.2872
-0.3010 TODAY </s> -0.3010
-0.3010 TOMORROW </s> -0.3010
-0.6021 TRAVEL IN -0.2961
-0.6021 TRAVEL TO -0.2788
-1.6628 TURN AROUND 0.0000
-1.6628 TURN DOWN -0.1249
-0.9638 TURN OFF -0.1996
-0.9638 TURN ON -0.1880
-0.6628 TURN THE -0.2149
-1.6628 TURN UP -0.2218
-0.7782 TWO LARGE -0.0792
-0.7782 TWO MEDIUM -0.1761
-0.7782 TWO SMALL -0.1761
-1.2553 UNDERSTAND EMOTION 0.0000
-1.2553 UNDERSTAND LOVE -0.2341
-0.7782 UNDERSTAND ME -0.2097
-0.6532 UNDERSTAND WHAT -0.2750
-0.6021 UNDERSTANDING </s> -0.3010
-0.6021 UNDERSTANDING ME -0.2097
-0.6021 UNIQUE </s> -0.3010
-0.6021 UNIQUE ROBOT 0.0000
-0.3010 UNIVERSE </s> -0.3010
-0.4771 UP </s> -0.3010
-0.7782 UP THE -0.2703
-0.3010 VACATION </s> -0.3010
-0.3010 WANT TO -0.2304
-0.6021 WARM </s> -0.3010
-0.6021 WARM IN -0.2808
-0.7782 WAS NOT -0.2553
-0.7782 WAS RUDE 0.0000
-0.7782 WAS YOUR -0.2872
-0.3010 WATER </s> -0.3010
-0.3010 WE </s> -0.3010
-1.5563 WEATHER </s> -0.3010
-0.6532 WEATHER FORECAST 0.0000
-1.0792 WEATHER LIKE -0.2109
-0.9542 WEATHER REPORT 0.0000
-1.5563 WEATHER TODAY 0.0000
-1.5563 WEATHER TOMORROW 0.0000
-0.3010 WERE YOU -0.2981
-1.9345 WHAT </s> -0.3010
-1.6335 WHAT ARE -0.1339
-1.9345 WHAT CAN -0.0263
-1.9345 WHAT DID 0.0000
-1.9345 WHAT DO -0.1761
-1.9345 WHAT FUNCTION 0.0000
-1.9345 WHAT FUNCTIONS 0.0000
-1.2355 WHAT I -0.2041
-0.4721 WHAT IS -0.1081
-1.9345 WHAT MAKES 0.0000
-0.3010 WHAT’S UP -0.1249
-0.3010 WHEN WILL 0.0000
-0.5643 WHERE ARE -0.0669
-1.3424 WHERE CREATED 0.0000
-1.3424 WHERE DO -0.1761
-1.0414 WHERE IS -0.2915
-1.3424 WHERE WERE 0.0000
-1.0792 WHO AM -0.2825
-1.0792 WHO ARE -0.1427
-0.7782 WHO I -0.2368
-1.0792 WHO INVENTED 0.0000
-1.0792 WHO IS -0.2293
-0.3010 WHY NOT -0.2553
-0.3010 WILL MACHINES 0.0000
-0.3010 WORLD </s> -0.3010
-0.6021 WOULD LIKE -0.2730
-0.6021 WOULD LOVE -0.2688
-0.6021 WRONG </s> -0.3010
-0.6021 WRONG ANSWER 0.0000
-0.3010 XAVIER </s> -0.3010
-0.3010 YARD </s> -0.3010
-1.1461 YES </s> -0.3010
-1.1461 YES DO -0.2835
-0.5441 YES I -0.1903
-1.1461 YES XAVIER 0.0000
-1.2160 YOU </s> -0.3010
-1.4713 YOU A -0.2258
-1.6931 YOU ARE -0.2825
-2.1703 YOU BEEN 0.0000
-2.1703 YOU BELIEVE 0.0000
-2.1703 YOU BORN 0.0000
-2.1703 YOU COME -0.1761
-1.5682 YOU DO -0.2715
-1.6931 YOU DOING -0.0669
-2.1703 YOU ENJOY 0.0000
-2.1703 YOU FEEL -0.2218
-2.1703 YOU FEELING 0.0000
-2.1703 YOU FROM 0.0000
-2.1703 YOU HAVE -0.1761
-2.1703 YOU HEAR 0.0000
-2.1703 YOU HUMAN 0.0000
-1.8692 YOU HURT 0.0000
-1.8692 YOU LIKE -0.2430
-2.1703 YOU LISTEN 0.0000
-1.6931 YOU LOVE -0.1549
-2.1703 YOU MEAN 0.0000
-2.1703 YOU NEED 0.0000
-1.8692 YOU RECOGNIZE 0.0000
-1.8692 YOU SEE 0.0000
-2.1703 YOU SERVE 0.0000
-2.1703 YOU SMART -0.2218
-1.8692 YOU SPECIAL -0.1249
-1.6931 YOU TELL 0.0000
-1.8692 YOU THERE -0.0621
-1.8692 YOU TRAVEL 0.0000
-1.2160 YOU UNDERSTAND 0.0000
-1.8692 YOU UNDERSTANDING 0.0000
-2.1703 YOU UNIQUE -0.1761
-1.8692 YOU XAVIER 0.0000
-1.5051 YOUR AGE 0.0000
-1.5051 YOUR BIRTH 0.0000
-1.5051 YOUR CHARGING 0.0000
-1.5051 YOUR CREATOR 0.0000
-1.5051 YOUR DAY -0.0969
-0.5509 YOUR FAVORITE 0.0000
-1.5051 YOUR NAME 0.0000
-1.5051 YOUR PURPOSE -0.1761

\3-grams:
-0.3010 <s> ABOUT WHAT
-0.3010 <s> AIR CONDITIONING
-0.3010 <s> ALL THE
-0.3010 <s> ARE YOU
-0.3010 <s> BE QUIET
-0.3010 <s> BECAUSE I
-0.3010 <s> CAN YOU
-0.3010 <s> CANCEL THAT
-0.3010 <s> CLOSE THE
-0.3010 <s> DID YOU
-1.0792 <s> DIM DOWN
-0.6021 <s> DIM THE
-1.0792 <s> DIM THEM
-1.0792 <s> DIM UP
-1.6232 <s> DO IT
-1.1461 <s> DO ROBOTS
-1.3222 <s> DO SOMETHING
-0.4472 <s> DO YOU
-0.3010 <s> EVERY DAY
-0.6021 <s> FORGET THAT
-0.6021 <s> FORGET WHAT
-0.3010 <s> FUCK OFF
-0.3010 <s> GET ME
-0.7782 <s> GO AWAY
-0.7782 <s> GO BACK
-0.7782 <s> GO TO
-0.9542 <s> GOOD AFTERNOON
-1.2553 <s> GOOD BYE
-1.2553 <s> GOOD DAY
-0.9542 <s> GOOD EVENING
-0.9542 <s> GOOD MORNING
-1.2553 <s> GOOD TO
-0.9031 <s> HELLO </s>
-0.6021 <s> HELLO THERE
-0.9031 <s> HELLO XAVIER
-0.9031 <s> HEY </s>
-0.6021 <s> HEY THERE
-0.9031 <s> HEY XAVIER
-0.9031 <s> HI </s>
-0.6021 <s> HI THERE
-0.9031 <s> HI XAVIER
-0.7347 <s> HOW ARE
-1.5798 <s> HOW COME
-1.5798 <s> HOW DO
-1.5798 <s> HOW HAVE
-1.1027 <s> HOW IS
-1.2788 <s> HOW MANY
-1.5798 <s> HOW OLD
-1.5798 <s> HOW SMART
-1.5798 <s> HOW WAS
-1.5798 <s> HOW YOU
-1.0414 <s> I AM
-0.9445 <s> I DO
-1.0414 <s> I DON’T
-1.3424 <s> I FEEL
-1.6435 <s> I GUESS
-1.3424 <s> I LOVE
-1.6435 <s> I NEED
-1.6435 <s> I SAID
-1.3424 <s> I WOULD
-0.3010 <s> IMMEDIATELY </s>
-1.8325 <s> IN MY
-0.3140 <s> IN THE
-0.3010 <s> IS THERE
-0.3010 <s> IT IS
-0.3010 <s> JUST DO
-0.3010 <s> LOOK HERE
-0.3010 <s> LOWER THE
-0.3010 <s> NEVER MIND
-1.0792 <s> NO </s>
-1.0792 <s> NO CANCEL
-0.7782 <s> NO I
-1.0792 <s> NO NEVER
-1.0792 <s> NO XAVIER
-0.3010 <s> NOT REALLY
-0.3010 <s> OPEN THE
-0.8239 <s> ORDER A
-1.3010 <s> ORDER FIVE
-1.3010 <s> ORDER FOUR
-1.3010 <s> ORDER ME
-1.3010 <s> ORDER THREE
-0.8239 <s> ORDER TWO
-0.3010 <s> OVER HERE
-0.3010 <s> PAUSE THE
-0.3010 <s> PLACE AN
-0.6021 <s> PLAY MUSIC
-0.6021 <s> PLAY SOME
-0.3010 <s> PROVE IT
-0.3010 <s> RAISE THE
-0.8062 <s> READ ME
-1.5051 <s> READ MY
-0.9031 <s> READ OUT
-0.7270 <s> READ THE
-0.3010 <s> RIGHT NOW
-0.3010 <s> SAY SOMETHING
-0.3010 <s> SET THE
-0.3010 <s> SHUT UP
-0.3010 <s> STOP THE
-0.9031 <s> SWITCH OFF
-0.9031 <s> SWITCH ON
-0.6021 <s> SWITCH THE
-0.3010 <s> TALK TO
-0.3010 <s> TELL ME
-0.3010 <s> THANK YOU
-0.6021 <s> THANKS </s>
-0.6021 <s> THANKS XAVIER
-0.7782 <s> THAT IS
-0.4771 <s> THAT WAS
-1.6628 <s> TURN AROUND
-1.6628 <s> TURN DOWN
-0.9638 <s> TURN OFF
-0.9638 <s> TURN ON
-0.6628 <s> TURN THE
-1.6628 <s> TURN UP
-1.5563 <s> WHAT ARE
-1.8573 <s> WHAT CAN
-1.8573 <s> WHAT DID
-1.8573 <s> WHAT DO
-1.8573 <s> WHAT FUNCTION
-1.8573 <s> WHAT FUNCTIONS
-0.4102 <s> WHAT IS
-1.8573 <s> WHAT MAKES
-0.3010 <s> WHAT’S UP
-0.3010 <s> WHEN WILL
-0.5643 <s> WHERE ARE
-1.3424 <s> WHERE CREATED
-1.3424 <s> WHERE DO
-1.0414 <s> WHERE IS
-1.3424 <s> WHERE WERE
-0.9031 <s> WHO AM
-0.9031 <s> WHO ARE
-0.9031 <s> WHO INVENTED
-0.9031 <s> WHO IS
-0.3010 <s> WHY NOT
-0.6021 <s> WRONG </s>
-0.6021 <s> WRONG ANSWER
-1.1461 <s> YES </s>
-1.1461 <s> YES DO
-0.5441 <s> YES I
-1.1461 <s> YES XAVIER
-0.4260 <s> YOU ARE
-0.9031 <s> YOU TELL
-0.3010 A CUP OF
-0.3010 A GLASS OF
-0.3010 A HUMAN </s>
-0.3010 A JOKE </s>
-0.3010 A LARGE PIZZA
-0.3010 A MACHINE </s>
-0.3010 A MEDIUM PIZZA
-0.3010 A PIZZA </s>
-0.3010 A PROGRAM </s>
-0.3010 A ROBOT </s>
-0.3010 A SMALL PIZZA
-0.3010 A SMART ROBOT
-0.3010 A SPECIAL ROBOT
-0.3010 A UNIQUE ROBOT
-0.3010 A VACATION </s>
-0.3010 ABOUT MY FUTURE
-0.3010 ABOUT WHAT </s>
-0.3010 AFTERNOON XAVIER </s>
-0.7782 AIR CONDITIONING </s>
-0.7782 AIR CONDITIONING OFF
-0.7782 AIR CONDITIONING ON
-0.3010 ALL THE TIME
-0.3010 AM AWARE OF
-0.3010 AM I </s>
-0.3010 AM PARCHED </s>
-0.3010 AM RIGHT HERE
-0.3010 AM SAYING </s>
-0.3010 AM SO THIRSTY
-0.3010 AM SURE </s>
-0.3010 AM THIRSTY </s>
-0.3010 AN ORDER FOR
-0.3010 ANY NEW NEWS
-0.3010 ANYTHING NEW IN
-0.3010 ARE A MACHINE
-0.3010 ARE IN THE
-0.8451 ARE MY STOCK
-0.4472 ARE MY STOCKS
-0.3010 ARE NOT HELPFUL
-0.3010 ARE SO CUTE
-0.3010 ARE THE NEWS
-0.3010 ARE WE </s>
-0.9445 ARE YOU </s>
-0.9445 ARE YOU A
-1.3424 ARE YOU DOING
-1.6435 ARE YOU FEELING
-1.6435 ARE YOU FROM
-1.6435 ARE YOU HUMAN
-1.6435 ARE YOU SMART
-1.6435 ARE YOU SPECIAL
-1.3424 ARE YOU THERE
-1.3424 ARE YOU UNDERSTANDING
-1.6435 ARE YOU UNIQUE
-0.3010 AT NOW </s>
-0.3010 AWARE OF THAT
-0.3010 BACK TO YOUR
-0.3010 BE QUIET </s>
-0.9031 BECAUSE I CAN
-0.9031 BECAUSE I LIKE
-0.9031 BECAUSE I SAID
-0.9031 BECAUSE I WANT
-0.3010 BELIEVE IN GOD
-0.3010 BIRTH DAY </s>
-1.1761 CAN YOU DO
-1.4771 CAN YOU HEAR
-1.1761 CAN YOU HURT
-1.1761 CAN YOU LOVE
-1.1761 CAN YOU SEE
-1.1761 CAN YOU TELL
-1.1761 CAN YOU TRAVEL
-1.1761 CAN YOU UNDERSTAND
-0.3010 CANCEL THAT </s>
-0.3010 CHARGING STATION </s>
-0.7782 CLOSE THE CURTAINS
-0.7782 CLOSE THE DRAPES
-0.7782 CLOSE THE SHADES
-0.3010 COLD IN HERE
-0.3010 COME FROM </s>
-0.3010 CONDITIONING OFF </s>
-0.3010 CONDITIONING ON </s>
-0.3010 CREATED YOU </s>
-0.3010 CUP OF WATER
-0.3010 CURRENT STOCK PRICES
-0.3010 CURTAINS RIGHT THERE
-0.3010 DAY XAVIER </s>
-0.9031 DID YOU DO
-0.4260 DID YOU UNDERSTAND
-0.3010 DIM DOWN THE
-0.3010 DIM THE LIGHTS
-0.3010 DIM THEM MORE
-0.3010 DIM UP THE
-0.3010 DINING ROOM </s>
-0.3010 DO IT </s>
-1.0792 DO NOT </s>
-0.7782 DO NOT KNOW
-1.0792 DO NOT LIKE
-1.0792 DO NOT MIND
-1.0792 DO NOT THINK
-0.7782 DO ROBOTS DIE
-0.7782 DO ROBOTS EAT
-0.7782 DO ROBOTS SLEEP
-0.6021 DO SOMETHING FUNNY
-0.6021 DO SOMETHING INTERESTING
-0.3010 DO TODAY </s>
-1.5798 DO YOU BELIEVE
-1.5798 DO YOU COME
-1.5798 DO YOU DO
-1.5798 DO YOU ENJOY
-1.5798 DO YOU FEEL
-1.5798 DO YOU HAVE
-1.2788 DO YOU LIKE
-1.5798 DO YOU LISTEN
-1.5798 DO YOU LOVE
-1.5798 DO YOU MEAN
-1.5798 DO YOU NEED
-1.2788 DO YOU RECOGNIZE
-1.5798 DO YOU SERVE
-0.9777 DO YOU UNDERSTAND
-0.3010 DOING NOW </s>
-0.3010 DOING TODAY </s>
-0.3010 DON’T KNOW </s>
-0.3010 DON’T MIND </s>
-0.3010 DON’T THINK SO
-0.6021 DOWN THE LIGHTS
-0.6021 DOWN THE TEMPERATURE
-0.3010 DRAPES RIGHT THERE
-0.3010 ENJOY MUSIC </s>
-0.3010 ENTERTAINMENT ROOM </s>
-0.3010 ENTIRE HOUSE </s>
-0.3010 EVENING XAVIER </s>
-0.3010 EVERY DAY </s>
-0.3010 FAMILY ROOM </s>
-0.3010 FAVORITE ALBUM </s>
-0.3010 FAVORITE FOOD </s>
-0.3010 FAVORITE MEAL </s>
-0.3010 FAVORITE MOVIE </s>
-0.3010 FAVORITE MUSIC </s>
-0.3010 FAVORITE SHOW </s>
-0.3010 FAVORITE SONG </s>
-0.3010 FAVORITE T.V SHOW
-0.3010 FAVORITE TELEVISION SHOW
-0.3010 FEEL PARCHED </s>
-0.3010 FEEL THIRSTY </s>
-0.3010 FIRST FLOOR </s>
-0.3010 FISH ARE IN
-0.3010 FIVE LARGE PIZZAS
-0.3010 FOR A PIZZA
-0.3010 FOR TODAY </s>
-0.3010 FOR TOMORROW </s>
-0.6021 FORECAST FOR TODAY
-0.6021 FORECAST FOR TOMORROW
-0.3010 FORECAST TODAY </s>
-0.3010 FORECAST TOMORROW </s>
-0.3010 FORGET THAT </s>
-0.3010 FORGET WHAT I
-0.3010 FORMAL DINING ROOM
-0.3010 FORMAL LIVING ROOM
-0.3010 FOUR LARGE PIZZAS
-0.3010 FREEZING IN HERE
-0.3010 FRONT YARD </s>
-0.3010 FUCK OFF </s>
-0.3010 FUNCTION DO YOU
-0.3010 FUNCTIONS CAN YOU
-0.4260 GET ME A
-0.9031 GET ME SOME
-0.3010 GLASS OF WATER
-0.3010 GO AWAY </s>
-0.3010 GO BACK TO
-0.3010 GO TO SLEEP
-0.6021 GOOD AFTERNOON </s>
-0.6021 GOOD AFTERNOON XAVIER
-0.3010 GOOD BYE </s>
-0.3010 GOOD DAY XAVIER
-0.6021 GOOD EVENING </s>
-0.6021 GOOD EVENING XAVIER
-0.6021 GOOD MORNING </s>
-0.6021 GOOD MORNING XAVIER
-0.3010 GOOD TO KNOW
-0.3010 GREAT ROOM </s>
-0.3010 GROUND FLOOR </s>
-0.3010 GUESS SO </s>
-0.3010 HAVE FEELINGS </s>
-0.3010 HAVE YOU BEEN
-0.3010 HEAR ME </s>
-0.6021 HELLO THERE </s>
-0.6021 HELLO THERE XAVIER
-0.3010 HELLO XAVIER </s>
-0.6021 HEY THERE </s>
-0.6021 HEY THERE XAVIER
-0.3010 HEY XAVIER </s>
-0.6021 HI THERE </s>
-0.6021 HI THERE XAVIER
-0.3010 HI XAVIER </s>
-0.3010 HOME CINEMA </s>
-0.3010 HOME THEATER </s>
-0.3010 HOT IN HERE
-0.6690 HOW ARE MY
-0.5441 HOW ARE YOU
-0.3010 HOW COME </s>
-0.3010 HOW DO YOU
-0.3010 HOW HAVE YOU
-0.3010 HOW IS THE
-0.6021 HOW MANY FISH
-0.6021 HOW MANY STARS
-0.3010 HOW OLD ARE
-0.3010 HOW SMART ARE
-0.3010 HOW WAS YOUR
-0.3010 HOW YOU DOING
-0.3010 HURT A HUMAN
-0.3010 HURT ME </s>
-1.0414 I AM </s>
-1.3424 I AM AWARE
-1.3424 I AM PARCHED
-1.3424 I AM RIGHT
-1.0414 I AM SAYING
-1.3424 I AM SO
-1.0414 I AM SURE
-1.3424 I AM THIRSTY
-0.3010 I CAN </s>
-1.1461 I DO </s>
-0.3680 I DO NOT
-1.0000 I DON’T </s>
-0.6990 I DON’T KNOW
-1.0000 I DON’T MIND
-1.0000 I DON’T THINK
-0.6021 I FEEL PARCHED
-0.6021 I FEEL THIRSTY
-0.3010 I GUESS SO
-0.3010 I JUST SAID
-0.3010 I LIKE IT
-0.3010 I LOVE YOU
-0.3010 I NEED A
-0.6021 I SAID </s>
-0.9031 I SAID SO
-0.9031 I SAID THAT
-0.3010 I WANT TO
-0.6021 I WOULD LIKE
-0.6021 I WOULD LOVE
-0.3010 IN GOD </s>
-0.3010 IN HERE </s>
-0.3010 IN MY ROOM
-1.8692 IN THE BACKYARD
-1.8692 IN THE BASEMENT
-1.8692 IN THE BEDROOM
-1.8692 IN THE CORRIDOR
-1.8692 IN THE CORRIDORS
-1.8692 IN THE DINING
-1.8692 IN THE ENTERTAINMENT
-1.8692 IN THE ENTIRE
-1.8692 IN THE ENTRANCE
-1.8692 IN THE FAMILY
-1.8692 IN THE FIRST
-1.5682 IN THE FORMAL
-1.8692 IN THE FOYER
-1.8692 IN THE FRONT
-1.8692 IN THE GARAGE
-1.8692 IN THE GARDEN
-1.8692 IN THE GREAT
-1.8692 IN THE GROUND
-1.8692 IN THE HALLWAY
-1.8692 IN THE HALLWAYS
-1.8692 IN THE HEADLINES
-1.5682 IN THE HOME
-1.5682 IN THE INFORMAL
-1.8692 IN THE KITCHEN
-1.8692 IN THE LIVING
-1.8692 IN THE LOBBY
-1.8692 IN THE MASTER
-1.8692 IN THE NEWS
-1.8692 IN THE POOL
-1.8692 IN THE ROOF
-1.8692 IN THE SEA
-1.8692 IN THE SKY
-1.8692 IN THE T.V
-1.8692 IN THE THEATER
-0.3010 IN TIME </s>
-0.3010 INFORMAL DINING ROOM
-0.3010 INFORMAL LIVING ROOM
-0.3010 INVENTED YOU </s>
-0.3010 IS A ROBOT
-0.6021 IS COLD </s>
-0.6021 IS COLD IN
-0.6021 IS FREEZING </s>
-0.6021 IS FREEZING IN
-0.3010 IS GOD </s>
-0.6021 IS HOT </s>
-0.6021 IS HOT IN
-0.3010 IS MY STOCKS
-0.3010 IS NEW IN
-0.3010 IS NICE </s>
-0.3010 IS ON THE
-1.1461 IS THE MEANING
-1.4472 IS THE PURPOSE
-1.4472 IS THE SECRET
-0.4472 IS THE WEATHER
-0.6021 IS THERE ANY
-0.6021 IS THERE ANYTHING
-0.3010 IS UP </s>
-0.6021 IS WARM </s>
-0.6021 IS WARM IN
-1.4472 IS YOUR AGE
-1.4472 IS YOUR BIRTH
-1.4472 IS YOUR CREATOR
-0.4929 IS YOUR FAVORITE
-1.4472 IS YOUR NAME
-1.4472 IS YOUR PURPOSE
-0.9031 IT IS COLD
-0.9031 IT IS FREEZING
-0.9031 IT IS HOT
-0.9031 IT IS WARM
-0.3010 JUST DO IT
-0.3010 JUST SAID </s>
-0.3010 LARGE PIZZA </s>
-0.3010 LARGE PIZZAS </s>
-0.3010 LIGHT OFF </s>
-0.3010 LIGHT ON </s>
-0.3010 LIGHTS DOWN </s>
-0.3010 LIGHTS OFF </s>
-0.3010 LIGHTS ON </s>
-0.3010 LIGHTS UP </s>
-0.3010 LIKE IT </s>
-0.3010 LIKE LISTENING TO
-0.3010 LIKE MUSIC </s>
-0.3010 LIKE THAT </s>
-0.3010 LIKE TO </s>
-0.3010 LIKE TODAY </s>
-0.3010 LIKE TOMORROW </s>
-0.3010 LISTEN TO MUSIC
-0.3010 LISTENING TO MUSIC
-0.3010 LIVING ROOM </s>
-0.3010 LOOK HERE </s>
-0.3010 LOVE A HUMAN
-0.3010 LOVE ME </s>
-0.3010 LOVE TO </s>
-0.6021 LOVE YOU </s>
-0.6021 LOVE YOU XAVIER
-0.3010 LOWER THE TEMPERATURE
-0.3010 MACHINES TAKE OVER
-0.3010 MAKES YOU SPECIAL
-0.3010 MANY FISH ARE
-0.3010 MANY STARS ARE
-0.3010 MASTER BEDROOM </s>
-1.0792 ME A CUP
-1.0792 ME A GLASS
-0.7782 ME A JOKE
-0.7782 ME A PIZZA
-0.3010 ME ABOUT MY
-0.3010 ME SOME WATER
-0.6021 ME SOMETHING FUNNY
-0.6021 ME SOMETHING INTERESTING
-0.7782 ME THE NEWS
-0.4771 ME THE WEATHER
-0.3010 ME WHAT IS
-0.3010 ME WHO I
-0.3010 MEANING OF LIFE
-0.3010 MEDIUM PIZZA </s>
-0.3010 MEDIUM PIZZAS </s>
-0.3010 MORNING XAVIER </s>
-0.3010 MY FUTURE </s>
-0.3010 MY NEWS FEED
-0.3010 MY ROOM </s>
-0.4771 MY STOCK PICKS
-0.7782 MY STOCK PRICES
-0.7782 MY STOCKS AT
-0.7782 MY STOCKS DOING
-0.7782 MY STOCKS NOW
-0.3010 NEED A VACATION
-0.3010 NEVER MIND </s>
-0.3010 NEW IN THE
-0.3010 NEW NEWS </s>
-0.3010 NEWS FEED </s>
-0.3010 NEWS HEADLINES </s>
-0.3010 NO CANCEL THAT
-0.6021 NO I DO
-0.6021 NO I DON’T
-0.3010 NO NEVER MIND
-0.3010 NO XAVIER </s>
-0.3010 NOT HELPFUL </s>
-0.3010 NOT KNOW </s>
-0.3010 NOT LIKE THAT
-0.3010 NOT MIND </s>
-0.3010 NOT REALLY </s>
-0.3010 NOT THINK SO
-0.3010 OF LIFE </s>
-0.3010 OF THAT </s>
-0.3010 OF THE UNIVERSE
-0.3010 OF WATER </s>
-1.0000 OFF THE AIR
-1.0000 OFF THE LIGHT
-1.0000 OFF THE LIGHTS
-1.0000 OFF THE T.V
-1.0000 OFF THE TELEVISION
-0.3010 OLD ARE YOU
-1.0414 ON THE AIR
-1.0414 ON THE LIGHT
-1.0414 ON THE LIGHTS
-1.3424 ON THE NEWS
-1.0414 ON THE T.V
-1.0414 ON THE TELEVISION
-0.7782 OPEN THE CURTAINS
-0.7782 OPEN THE DRAPES
-0.7782 OPEN THE SHADES
-0.7782 ORDER A LARGE
-0.7782 ORDER A MEDIUM
-0.7782 ORDER A SMALL
-0.3010 ORDER FIVE LARGE
-0.3010 ORDER FOR A
-0.3010 ORDER FOUR LARGE
-0.3010 ORDER ME A
-0.3010 ORDER THREE LARGE
-0.7782 ORDER TWO LARGE
-0.7782 ORDER TWO MEDIUM
-0.7782 ORDER TWO SMALL
-0.6021 OUT MY NEWS
-0.6021 OUT MY STOCK
-0.6021 OUT THE CURRENT
-0.6021 OUT THE NEWS
-0.3010 OVER HERE </s>
-0.3010 OVER THE WORLD
-0.3010 PAUSE THE MUSIC
-0.3010 PICKS DOING </s>
-0.3010 PICKS TODAY </s>
-0.3010 PLACE AN ORDER
-0.3010 PLAY MUSIC </s>
-0.3010 PLAY SOME MUSIC
-0.3010 POOL AREA </s>
-0.3010 PROVE IT </s>
-0.3010 PURPOSE OF LIFE
-0.3010 RAISE THE TEMPERATURE
-0.3010 READ ME THE
-0.3010 READ MY NEWS
-0.6021 READ OUT MY
-0.6021 READ OUT THE
-0.7782 READ THE NEWS
-0.4771 READ THE WEATHER
-0.3010 RECOGNIZE ME </s>
-0.3010 RECOGNIZE WHO I
-0.6021 REPORT FOR TODAY
-0.6021 REPORT FOR TOMORROW
-0.3010 RIGHT HERE </s>
-0.3010 RIGHT NOW </s>
-0.3010 RIGHT THERE </s>
-0.3010 ROBOTS DIE </s>
-0.3010 ROBOTS EAT </s>
-0.3010 ROBOTS SLEEP </s>
-0.3010 SAID SO </s>
-0.3010 SAID THAT </s>
-0.6021 SAY SOMETHING FUNNY
-0.6021 SAY SOMETHING INTERESTING
-0.3010 SECRET OF THE
-0.3010 SEE ME </s>
-0.3010 SEE THE FUTURE
-0.6021 SET THE AIR
-0.6021 SET THE LIGHTS
-0.3010 SHADES RIGHT THERE
-0.3010 SHUT UP </s>
-0.3010 SMALL PIZZA </s>
-0.3010 SMALL PIZZAS </s>
-0.3010 SMART ARE YOU
-0.3010 SMART ROBOT </s>
-0.3010 SO CUTE </s>
-0.3010 SO THIRSTY </s>
-0.3010 SOME MUSIC </s>
-0.3010 SOME WATER </s>
-0.3010 SOMETHING FUNNY </s>
-0.3010 SOMETHING INTERESTING </s>
-0.3010 SPECIAL ROBOT </s>
-0.3010 STARS ARE IN
-0.6021 STOCK PICKS DOING
-0.6021 STOCK PICKS TODAY
-0.3010 STOCK PRICES </s>
-0.6021 STOCKS AT </s>
-0.6021 STOCKS AT NOW
-0.6021 STOCKS DOING </s>
-0.6021 STOCKS DOING NOW
-0.3010 STOCKS NOW </s>
-0.8451 STOP THE CURTAINS
-0.8451 STOP THE DRAPES
-1.1461 STOP THE MUSIC
-0.8451 STOP THE SHADES
-0.3010 SWITCH OFF THE
-0.3010 SWITCH ON THE
-1.0000 SWITCH THE AIR
-1.0000 SWITCH THE LIGHT
-1.0000 SWITCH THE LIGHTS
-1.0000 SWITCH THE T.V
-1.0000 SWITCH THE TELEVISION
-0.3010 T.V OFF </s>
-0.3010 T.V ON </s>
-0.3010 T.V ROOM </s>
-0.3010 T.V SHOW </s>
-0.3010 TAKE OVER THE
-0.3010 TALK TO ME
-0.3010 TELEVISION OFF </s>
-0.3010 TELEVISION ON </s>
-0.3010 TELEVISION SHOW </s>
-1.2553 TELL ME </s>
-0.9542 TELL ME A
-1.2553 TELL ME ABOUT
-0.9542 TELL ME SOMETHING
-1.2553 TELL ME THE
-1.2553 TELL ME WHAT
-1.2553 TELL ME WHO
-0.6021 THANK YOU </s>
-0.6021 THANK YOU XAVIER
-0.3010 THANKS XAVIER </s>
-0.3010 THAT IS NICE
-0.6021 THAT WAS NOT
-0.6021 THAT WAS RUDE
-0.3010 THE AIR CONDITIONING
-0.3010 THE BACKYARD </s>
-0.3010 THE BASEMENT </s>
-0.3010 THE BEDROOM </s>
-0.3010 THE CORRIDOR </s>
-0.3010 THE CORRIDORS </s>
-0.3010 THE CURRENT STOCK
-0.4260 THE CURTAINS </s>
-0.9031 THE CURTAINS RIGHT
-0.3010 THE DINING ROOM
-0.4260 THE DRAPES </s>
-0.9031 THE DRAPES RIGHT
-0.3010 THE ENTERTAINMENT ROOM
-0.3010 THE ENTIRE HOUSE
-0.3010 THE ENTRANCE </s>
-0.3010 THE FAMILY ROOM
-0.3010 THE FIRST FLOOR
-0.6021 THE FORMAL DINING
-0.6021 THE FORMAL LIVING
-0.3010 THE FOYER </s>
-0.3010 THE FRONT YARD
-0.3010 THE FUTURE </s>
-0.3010 THE GARAGE </s>
-0.3010 THE GARDEN </s>
-0.3010 THE GREAT ROOM
-0.3010 THE GROUND FLOOR
-0.3010 THE HALLWAY </s>
-0.3010 THE HALLWAYS </s>
-0.3010 THE HEADLINES </s>
-0.6021 THE HOME CINEMA
-0.6021 THE HOME THEATER
-0.6021 THE INFORMAL DINING
-0.6021 THE INFORMAL LIVING
-0.3010 THE KITCHEN </s>
-0.6021 THE LIGHT </s>
-0.9031 THE LIGHT OFF
-0.9031 THE LIGHT ON
-0.6320 THE LIGHTS </s>
-1.4771 THE LIGHTS DOWN
-1.0000 THE LIGHTS OFF
-1.0000 THE LIGHTS ON
-1.4771 THE LIGHTS UP
-0.3010 THE LIVING ROOM
-0.3010 THE LOBBY </s>
-0.3010 THE MASTER BEDROOM
-0.3010 THE MEANING OF
-0.3010 THE MUSIC </s>
-0.4260 THE NEWS </s>
-1.2041 THE NEWS FEED
-1.2041 THE NEWS HEADLINES
-0.3010 THE POOL AREA
-0.3010 THE PURPOSE OF
-0.3010 THE ROOF </s>
-0.3010 THE SEA </s>
-0.3010 THE SECRET OF
-0.4260 THE SHADES </s>
-0.9031 THE SHADES RIGHT
-0.3010 THE SKY </s>
-0.6532 THE T.V </s>
-0.9542 THE T.V OFF
-0.9542 THE T.V ON
-1.2553 THE T.V ROOM
-0.6021 THE TELEVISION </s>
-0.9031 THE TELEVISION OFF
-0.9031 THE TELEVISION ON
-0.3010 THE TEMPERATURE </s>
-0.3010 THE THEATER ROOM
-0.3010 THE TIME </s>
-0.3010 THE UNIVERSE </s>
-1.5563 THE WEATHER </s>
-0.6532 THE WEATHER FORECAST
-1.0792 THE WEATHER LIKE
-0.9542 THE WEATHER REPORT
-1.5563 THE WEATHER TODAY
-1.5563 THE WEATHER TOMORROW
-0.3010 THE WORLD </s>
-0.3010 THEATER ROOM </s>
-0.3010 THEM MORE </s>
-0.3010 THERE ANY NEW
-0.3010 THERE ANYTHING NEW
-0.3010 THERE XAVIER </s>
-0.3010 THINK SO </s>
-0.3010 THREE LARGE PIZZAS
-0.3010 TO KNOW </s>
-0.3010 TO ME </s>
-0.3010 TO MUSIC </s>
-0.3010 TO SLEEP </s>
-0.3010 TO THE FUTURE
-0.3010 TO YOUR CHARGING
-0.3010 TRAVEL IN TIME
-0.3010 TRAVEL TO THE
-0.3010 TURN AROUND </s>
-0.3010 TURN DOWN THE
-0.3010 TURN OFF THE
-0.3010 TURN ON THE
-1.0000 TURN THE AIR
-1.0000 TURN THE LIGHT
-1.0000 TURN THE LIGHTS
-1.0000 TURN THE T.V
-1.0000 TURN THE TELEVISION
-0.3010 TURN UP THE
-0.3010 TWO LARGE PIZZAS
-0.3010 TWO MEDIUM PIZZAS
-0.3010 TWO SMALL PIZZAS
-0.3010 UNDERSTAND EMOTION </s>
-0.3010 UNDERSTAND LOVE </s>
-0.3010 UNDERSTAND ME </s>
-0.3010 UNDERSTAND WHAT I
-0.3010 UNDERSTANDING ME </s>
-0.3010 UNIQUE ROBOT </s>
-0.6021 UP THE LIGHTS
-0.6021 UP THE TEMPERATURE
-0.3010 WANT TO </s>
-0.3010 WARM IN HERE
-0.3010 WAS NOT HELPFUL
-0.3010 WAS RUDE </s>
-0.3010 WAS YOUR DAY
-0.4260 WEATHER FORECAST FOR
-1.2041 WEATHER FORECAST TODAY
-1.2041 WEATHER FORECAST TOMORROW
-0.7782 WEATHER LIKE </s>
-0.7782 WEATHER LIKE TODAY
-0.7782 WEATHER LIKE TOMORROW
-0.3010 WEATHER REPORT FOR
-0.3010 WEATHER TODAY </s>
-0.3010 WEATHER TOMORROW </s>
-0.3010 WERE YOU BORN
-0.6021 WHAT ARE THE
-0.6021 WHAT ARE YOU
-0.3010 WHAT CAN YOU
-0.3010 WHAT DID YOU
-0.3010 WHAT DO YOU
-0.3010 WHAT FUNCTION DO
-0.3010 WHAT FUNCTIONS CAN
-0.6990 WHAT I AM
-1.0000 WHAT I JUST
-0.6990 WHAT I SAID
-1.4624 WHAT IS A
-1.7634 WHAT IS NEW
-1.7634 WHAT IS ON
-0.7220 WHAT IS THE
-1.7634 WHAT IS UP
-0.6495 WHAT IS YOUR
-0.3010 WHAT MAKES YOU
-0.3010 WHAT’S UP </s>
-0.3010 WHEN WILL MACHINES
-0.4771 WHERE ARE MY
-1.0792 WHERE ARE WE
-1.0792 WHERE ARE YOU
-0.3010 WHERE CREATED YOU
-0.3010 WHERE DO YOU
-0.6021 WHERE IS GOD
-0.6021 WHERE IS MY
-0.3010 WHERE WERE YOU
-0.3010 WHO AM I
-0.3010 WHO ARE YOU
-0.3010 WHO I AM
-0.3010 WHO INVENTED YOU
-0.3010 WHO IS YOUR
-0.3010 WHY NOT </s>
-0.3010 WILL MACHINES TAKE
-0.3010 WOULD LIKE TO
-0.3010 WOULD LOVE TO
-0.3010 WRONG ANSWER </s>
-0.3010 YES DO IT
-0.4260 YES I AM
-0.9031 YES I DO
-0.3010 YES XAVIER </s>
-1.0000 YOU A PROGRAM
-1.0000 YOU A ROBOT
-1.0000 YOU A SMART
-1.0000 YOU A SPECIAL
-1.0000 YOU A UNIQUE
-0.7782 YOU ARE A
-0.7782 YOU ARE NOT
-0.7782 YOU ARE SO
-0.3010 YOU BEEN </s>
-0.3010 YOU BELIEVE IN
-0.3010 YOU BORN </s>
-0.3010 YOU COME FROM
-0.4260 YOU DO </s>
-0.9031 YOU DO TODAY
-0.4771 YOU DOING </s>
-0.7782 YOU DOING TODAY
-0.3010 YOU ENJOY MUSIC
-0.3010 YOU FEEL </s>
-0.3010 YOU FEELING </s>
-0.3010 YOU FROM </s>
-0.3010 YOU HAVE FEELINGS
-0.3010 YOU HEAR ME
-0.3010 YOU HUMAN </s>
-0.6021 YOU HURT A
-0.6021 YOU HURT ME
-0.6021 YOU LIKE LISTENING
-0.6021 YOU LIKE MUSIC
-0.3010 YOU LISTEN TO
-0.7782 YOU LOVE </s>
-0.7782 YOU LOVE A
-0.7782 YOU LOVE ME
-0.3010 YOU MEAN </s>
-0.3010 YOU NEED A
-0.6021 YOU RECOGNIZE ME
-0.6021 YOU RECOGNIZE WHO
-0.6021 YOU SEE ME
-0.6021 YOU SEE THE
-0.3010 YOU SERVE </s>
-0.3010 YOU SMART </s>
-0.3010 YOU SPECIAL </s>
-0.3010 YOU TELL ME
-0.6021 YOU THERE </s>
-0.6021 YOU THERE XAVIER
-0.6021 YOU TRAVEL IN
-0.6021 YOU TRAVEL TO
-1.2553 YOU UNDERSTAND EMOTION
-1.2553 YOU UNDERSTAND LOVE
-0.7782 YOU UNDERSTAND ME
-0.6532 YOU UNDERSTAND WHAT
-0.6021 YOU UNDERSTANDING </s>
-0.6021 YOU UNDERSTANDING ME
-0.3010 YOU UNIQUE </s>
-0.3010 YOU XAVIER </s>
-0.3010 YOUR AGE </s>
-0.3010 YOUR BIRTH DAY
-0.3010 YOUR CHARGING STATION
-0.3010 YOUR CREATOR </s>
-0.3010 YOUR DAY </s>
-1.2553 YOUR FAVORITE ALBUM
-1.2553 YOUR FAVORITE FOOD
-1.2553 YOUR FAVORITE MEAL
-1.2553 YOUR FAVORITE MOVIE
-1.2553 YOUR FAVORITE MUSIC
-1.2553 YOUR FAVORITE SHOW
-1.2553 YOUR FAVORITE SONG
-1.2553 YOUR FAVORITE T.V
-1.2553 YOUR FAVORITE TELEVISION
-0.3010 YOUR NAME </s>
-0.3010 YOUR PURPOSE </s>

\end\
