Language model created by QuickLM on Tue May  6 08:36:55 EDT 2014
Copyright (c) 1996-2010 Carnegie Mellon University and Alexander I. Rudnicky

The model is in standard ARPA format, designed by Doug Paul while he was at MITRE.

The code that was used to produce this language model is available in Open Source.
Please visit http://www.speech.cs.cmu.edu/tools/ for more information

The (fixed) discount mass is 0.5. The backoffs are computed using the ratio method.
This model based on a corpus of 595 sentences and 358 words

\data\
ngram 1=358
ngram 2=1022
ngram 3=1544

\1-grams:
-0.9013 </s> -0.2428
-3.9764 </s><s> -0.2428
-0.9009 <s> -0.1106
-2.5140 A -0.2992
-2.2952 A.M -0.2428
-3.0734 ABOUT -0.2377
-3.4993 AFTER -0.2969
-3.9764 AFTERNOON -0.2428
-3.9764 AGE -0.2428
-3.4993 AIR -0.3009
-1.9942 ALARM -0.2966
-3.9764 ALBUM -0.2428
-3.9764 ALL -0.2985
-3.9764 ALONE -0.2428
-3.9764 ALREADY -0.3010
-2.5615 AM -0.2359
-3.9764 AMAZING -0.2428
-1.9678 AN -0.2961
-3.6754 ANNOYING -0.2408
-3.9764 ANSWER -0.2428
-3.1983 ANY -0.3000
-3.9764 APOLOGIZE -0.2428
-2.3137 ARE -0.2277
-3.6754 AROUND -0.2399
-3.3744 ASK -0.2947
-3.6754 ASKING -0.3003
-1.9897 AT -0.2952
-3.9764 AWARE -0.3005
-3.6754 AWAY -0.2427
-3.6754 BACK -0.2413
-3.6754 BAD -0.3008
-2.9350 BE -0.2998
-3.9764 BEAUTIFUL -0.2428
-2.9764 BECAUSE -0.2309
-3.9764 BED -0.2428
-3.9764 BEEN -0.2428
-3.9764 BEFORE -0.2428
-3.6754 BEHAVE -0.3009
-3.1983 BELEIVE -0.3003
-3.6754 BELIEVE -0.2929
-3.9764 BEST -0.3009
-3.9764 BITCH -0.2428
-3.4993 BODY -0.3006
-3.9764 BOOK -0.2428
-3.6754 BORING -0.2408
-3.9764 BORN -0.2428
-3.9764 BREAKFAST -0.3008
-3.6754 BUT -0.2979
-3.6754 CALANDER -0.2428
-2.6977 CAN -0.2904
-3.9764 CANCER -0.2428
-3.9764 CARE -0.3005
-3.9764 CERTAINLY -0.2428
-3.4993 CHANDELIER -0.2428
-3.9764 CHARGING -0.3010
-3.6754 CLEAN -0.2985
-3.9764 COLD -0.2428
-3.9764 COLOR -0.2428
-3.4993 COME -0.2419
-3.4993 CONDITIONING -0.2428
-3.9764 COURSE -0.2428
-3.9764 CREATED -0.2947
-3.6754 CREATOR -0.2422
-3.9764 CUTE -0.2428
-3.9764 DADDY -0.2428
-3.2775 DAY -0.2403
-3.6754 DEATH -0.2428
-3.6754 DELICIOUS -0.2428
-3.6754 DEPRESSED -0.2428
-3.9764 DEPRESSION -0.2428
-3.9764 DESIGNED -0.2947
-2.9350 DID -0.2342
-3.6754 DIDNT -0.3008
-3.4993 DIE -0.2428
-3.9764 DIFFERENT -0.3000
-3.4993 DIM -0.2985
-3.9764 DINNER -0.3008
-2.1911 DO -0.2320
-3.9764 DOES -0.2985
-3.9764 DOESNT -0.3008
-3.9764 DOING -0.3008
-3.1983 DONT -0.2411
-3.6754 EARTH -0.3009
-3.6754 EAT -0.2428
-3.0734 EIGHT -0.2933
-3.0734 ELEVEN -0.2933
-3.2775 EMAIL -0.2992
-3.9764 EVENING -0.2428
-3.9764 EVENT -0.3003
-3.9764 EVERY -0.3008
-3.9764 EVERYONE -0.2428
-3.6754 EXACTLY -0.2986
-3.9764 EXIST -0.2428
-3.9764 FACE -0.2428
-3.0734 FAVORITE -0.3005
-3.9764 FEED -0.2428
-3.6754 FEEL -0.3007
-3.9764 FEELING -0.3009
-3.6754 FEELINGS -0.2428
-2.5962 FIFTEEN -0.2966
-3.9764 FISH -0.2989
-2.4713 FIVE -0.2933
-3.1313 FOR -0.2398
-3.9764 FORGET -0.2986
-2.5962 FORTY -0.2996
-3.0734 FOUR -0.2933
-3.4993 FRIENDS -0.2428
-3.6754 FROM -0.2428
-3.6754 FUCK -0.2941
-3.3744 FUNNY -0.2428
-3.4993 FUTURE -0.2428
-3.6754 GET -0.3006
-3.9764 GHOSTS -0.2428
-3.9764 GIVES -0.2947
-3.0734 GO -0.2409
-3.6754 GOD -0.2428
-3.6754 GOING -0.2997
-3.1313 GOOD -0.2410
-3.9764 GUESS -0.3007
-3.4993 HAD -0.2996
-3.6754 HANDSOME -0.2428
-3.4993 HAPPENS -0.3009
-3.9764 HAPPY -0.2428
-3.3744 HATE -0.2930
-2.8973 HAVE -0.2911
-3.9764 HEAR -0.2993
-3.9764 HEAVEN -0.2428
-3.9764 HELL -0.2428
-3.4993 HELLO -0.2422
-3.2775 HELPFUL -0.2428
-3.6754 HER -0.2971
-3.0222 HERE -0.2427
-3.4993 HEY -0.2422
-3.9764 HI -0.3007
-3.6754 HIM -0.2971
-3.9764 HOBBIES -0.2428
-3.6754 HOT -0.3003
-3.6754 HOUSE -0.2428
-2.8973 HOW -0.2927
-3.6754 HUMAN -0.2428
-3.6754 HUMOR -0.2408
-3.9764 HUNGRY -0.2428
-3.6754 HURT -0.2982
-2.0419 I -0.2324
-3.9764 IMPOSSIBLE -0.2428
-2.7723 IN -0.2907
-3.9764 INTELLIGENT -0.2428
-3.4993 INTERESTING -0.2428
-3.9764 INTERESTS -0.2428
-3.9764 INTERNET -0.2428
-3.9764 INVENTED -0.2947
-3.9764 INVENTOR -0.2428
-2.3043 IS -0.2334
-2.6542 IT -0.2398
-3.9764 ITS -0.3009
-3.6754 JOKE -0.2428
-3.3744 JUST -0.2978
-3.9764 KIDDING -0.2993
-3.3744 KILL -0.2932
-3.6754 KIND -0.2428
-3.1313 KNOW -0.2389
-3.9764 LANGUAGES -0.2428
-3.9764 LARGE -0.3008
-3.6754 LATE -0.2428
-3.9764 LEARN -0.2428
-3.6754 LEAVE -0.2408
-3.9764 LEAVING -0.2428
-3.9764 LEMONS -0.2428
-3.9764 LET -0.3010
-3.3744 LIFE -0.2403
-2.9764 LIGHTS -0.2414
-2.8004 LIKE -0.2291
-3.9764 LIKES -0.2993
-3.6754 LISTENING -0.2997
-3.6754 LOOK -0.2999
-3.3744 LOVE -0.2915
-3.9764 LUNCH -0.3008
-3.9764 MACHINE -0.2428
-3.9764 MAKE -0.2993
-3.4993 MAKES -0.2947
-3.9764 MAKING -0.3009
-3.6754 MANY -0.3009
-3.9764 MARRIED -0.2428
-3.9764 MASTER -0.2428
-3.9764 MAYBE -0.3008
-2.3967 ME -0.2328
-3.3744 MEAN -0.2417
-3.9764 MEANT -0.2428
-3.9764 MEDIUM -0.3008
-3.9764 MEET -0.2947
-3.6754 MEETING -0.2939
-3.6754 MIND -0.2428
-3.6754 MONEY -0.2428
-3.9764 MORNING -0.2428
-3.9764 MOVIE -0.2428
-3.4993 MUSIC -0.2428
-3.0222 MY -0.3002
-3.6754 MYSELF -0.2428
-3.6754 NAME -0.2403
-3.6754 NEED -0.2979
-3.9764 NEVER -0.2428
-3.9764 NEW -0.3003
-3.4993 NEWS -0.2427
-3.3744 NICE -0.2413
-3.6754 NIGHT -0.2428
-3.0734 NINE -0.2933
-3.1983 NO -0.2381
-2.5962 NOT -0.2357
-3.6754 NOW -0.2428
-3.9764 OCEAN -0.2428
-2.9350 OF -0.2361
-2.8973 OFF -0.2398
-3.9764 OLD -0.2989
-2.8303 ON -0.2399
-2.8973 ONE -0.2924
-3.6754 OPINION -0.2428
-3.9764 OR -0.2989
-3.2775 ORDER -0.2976
-3.6754 OTHER -0.3008
-3.4993 OUT -0.2421
-3.9764 OVER -0.3006
-2.2952 P.M -0.2428
-3.9764 PET -0.2428
-3.9764 PETS -0.2428
-3.1983 PIZZA -0.2428
-3.6754 PLACE -0.2956
-3.9764 PLAY -0.3009
-3.9764 PLEASURE -0.3009
-3.6754 POLITE -0.2428
-3.9764 POSSIBLE -0.2428
-3.6754 PROBLEM -0.2428
-3.9764 PROVE -0.3001
-3.6754 PURPOSE -0.2422
-3.9764 QUIET -0.2428
-3.6754 READ -0.2981
-3.4993 REALLY -0.2416
-3.6754 REBOOT -0.2355
-3.9764 REMIND -0.2993
-3.6754 REMINDER -0.2428
-3.9764 REMOTE -0.2428
-3.9764 REVOLVE -0.3009
-3.6754 RIGHT -0.3005
-3.0222 ROBOT -0.2428
-3.2775 ROBOTS -0.2419
-3.9764 ROUND -0.2428
-3.1313 RUBY -0.2404
-3.6754 RUDE -0.2424
-3.4993 SAD -0.2428
-3.2775 SAID -0.2411
-3.4993 SAY -0.2997
-3.9764 SAYING -0.2428
-3.9764 SCARY -0.2428
-3.9764 SCHEDULE -0.2997
-3.9764 SECRET -0.3005
-3.3744 SEE -0.2379
-3.3744 SEND -0.2946
-3.9764 SENSE -0.3005
-3.9764 SERVE -0.2993
-1.9897 SET -0.2965
-3.0734 SEVEN -0.2933
-3.6754 SEX -0.2427
-3.9764 SHEDULE -0.2963
-3.2775 SHOULD -0.2969
-3.9764 SHUT -0.2965
-3.0734 SIX -0.2933
-3.9764 SKY -0.2428
-3.2775 SLEEP -0.2376
-3.9764 SLEEPY -0.2428
-3.9764 SMALL -0.3008
-3.4993 SMART -0.2371
-3.9764 SNOW -0.2428
-3.0734 SO -0.2395
-3.9764 SOFTWARE -0.3010
-3.4993 SOME -0.3008
-3.1313 SOMETHING -0.2994
-3.9764 SOMETIME -0.2428
-3.9764 SONG -0.2428
-3.6754 SORRY -0.2382
-3.9764 SOUND -0.3003
-3.9764 SPEAK -0.3009
-3.6754 SPECIAL -0.2423
-3.9764 SPOTLIGHTS -0.2428
-3.9764 STARS -0.2989
-3.9764 STATION -0.2428
-3.6754 STAY -0.3003
-3.9764 STORY -0.2428
-3.3744 STUPID -0.2426
-3.9764 SUGGEST -0.3007
-3.9764 SUN -0.2428
-3.9764 SURE -0.2947
-3.9764 SURPRISED -0.3008
-3.0222 SWITCH -0.2973
-3.9764 TAKE -0.3010
-3.6754 TALK -0.2413
-3.6754 TASTES -0.3006
-3.0734 TELEVISION -0.2414
-2.7212 TELL -0.2988
-3.0734 TEN -0.2933
-3.9764 THANK -0.2947
-3.9764 THANKS -0.2428
-2.6147 THAT -0.2397
-2.2361 THE -0.2982
-3.3744 THERE -0.2428
-3.9764 THEY -0.2982
-3.9764 THINGS -0.2428
-3.3744 THINK -0.2903
-3.9764 THINKING -0.3007
-2.5962 THIRTY -0.2966
-3.6754 THIS -0.2428
-3.0734 THREE -0.2933
-3.9764 TIGHT -0.2428
-3.3744 TIME -0.2403
-3.6754 TIMES -0.2428
-2.5140 TO -0.2287
-3.9764 TO</S> -0.2428
-3.1983 TODAY -0.2428
-3.9764 TOLD -0.2947
-3.9764 TONIGHT -0.2428
-3.9764 TOO -0.2428
-3.6754 TRAVEL -0.2990
-3.4993 TRY -0.2987
-2.8303 TURN -0.2972
-3.0734 TWELVE -0.2933
-3.0734 TWO -0.2933
-3.6754 UNDERSTAND -0.2968
-3.9764 UNDERSTANDING -0.2993
-3.6754 UNDERTAND -0.2986
-3.9764 UNIQUE -0.3006
-3.6754 UNIVERSE -0.2428
-1.9808 UP -0.2359
-3.9764 US -0.3009
-3.9764 VERSION -0.2428
-3.2775 VERY -0.3006
-3.9764 VIRGIN -0.2428
-3.0734 WANT -0.2412
-3.1983 WAS -0.2987
-3.6754 WAY -0.2428
-3.6754 WE -0.2426
-3.6754 WEATHER -0.3001
-3.6754 WEBSITE -0.2419
-3.9764 WERE -0.2947
-2.2522 WHAT -0.2273
-3.6754 WHATS -0.2939
-3.9764 WHEN -0.3008
-3.1313 WHERE -0.2874
-2.9350 WHO -0.2363
-3.9764 WHOLE -0.3009
-3.1313 WHY -0.2332
-3.6754 WIFE -0.2428
-3.3744 WILL -0.3003
-3.9764 WITH -0.2993
-3.6754 WORLD -0.2428
-3.3744 WOULD -0.2997
-3.6754 WRONG -0.2427
-3.3744 YES -0.2382
-1.8366 YOU -0.2123
-2.5962 YOUR -0.2996
-3.4993 YOURSELF -0.2424

\2-grams:
-0.6024 </s> </s> -0.3010
-0.3010 </s><s> </s> -0.1762
-1.3274 <s> </s> -0.1762
-0.6021 <s> <s> -0.1761
-3.0755 <s> ABOUT -0.2430
-3.3766 <s> ALL 0.0000
-3.0755 <s> AM -0.2752
-2.2974 <s> ARE -0.1885
-3.0755 <s> BE -0.2374
-2.4223 <s> BECAUSE -0.0414
-3.0755 <s> BEHAVE 0.0000
-3.3766 <s> BELIEVE -0.1761
-3.0755 <s> BUT 0.0000
-2.3766 <s> CAN -0.1192
-3.3766 <s> CERTAINLY 0.0000
-3.3766 <s> CLEAN 0.0000
-3.3766 <s> COME -0.2218
-2.8995 <s> DID -0.1627
-2.8995 <s> DIM 0.0000
-1.8714 <s> DO -0.1337
-3.3766 <s> EMAIL -0.2553
-3.3766 <s> EVERY 0.0000
-3.3766 <s> FORGET 0.0000
-3.0755 <s> FUCK 0.0000
-3.3766 <s> GET -0.1761
-2.6776 <s> GO -0.1383
-2.6776 <s> GOOD -0.1091
-3.3766 <s> HAVE -0.2632
-2.8995 <s> HELLO 0.0000
-2.8995 <s> HEY 0.0000
-3.3766 <s> HI 0.0000
-2.2974 <s> HOW 0.0000
-3.3766 <s> HUMOR -0.1761
-1.6442 <s> I -0.0386
-3.3766 <s> IS -0.2821
-2.6776 <s> IT -0.2460
-3.3766 <s> ITS 0.0000
-3.0755 <s> JUST -0.1761
-3.3766 <s> LEAVE -0.1761
-3.3766 <s> LET 0.0000
-3.3766 <s> LIFE -0.2430
-3.3766 <s> LOOK -0.1761
-3.3766 <s> MAYBE 0.0000
-3.3766 <s> MY -0.2762
-3.3766 <s> NEVER 0.0000
-3.3766 <s> NICE -0.2430
-2.5984 <s> NO 0.0000
-3.3766 <s> NOT -0.2919
-3.3766 <s> OF -0.2808
-2.7745 <s> ORDER -0.0792
-3.3766 <s> OVER 0.0000
-3.3766 <s> PLACE -0.1761
-3.3766 <s> PLAY 0.0000
-3.3766 <s> PLEASURE 0.0000
-3.3766 <s> PROVE 0.0000
-3.0755 <s> READ 0.0000
-3.3766 <s> RIGHT -0.1761
-3.0755 <s> RUBY 0.0000
-3.0755 <s> SAY -0.1249
-3.3766 <s> SCHEDULE 0.0000
-2.7745 <s> SEND 0.0000
-1.3898 <s> SET 0.0000
-3.3766 <s> SHEDULE 0.0000
-3.3766 <s> SHUT 0.0000
-3.3766 <s> SLEEP -0.2553
-3.0755 <s> SO -0.2430
-3.0755 <s> STAY 0.0000
-2.4223 <s> SWITCH 0.0000
-3.3766 <s> TAKE 0.0000
-3.3766 <s> TALK -0.1761
-2.3352 <s> TELL -0.0669
-3.3766 <s> THANK 0.0000
-3.3766 <s> THANKS 0.0000
-2.2005 <s> THAT -0.1296
-3.0755 <s> TO -0.2858
-3.3766 <s> TRY -0.2218
-2.2304 <s> TURN 0.0000
-1.7431 <s> WHAT -0.0681
-3.3766 <s> WHATS -0.1761
-2.5984 <s> WHERE -0.0580
-2.3766 <s> WHO -0.0378
-2.5315 <s> WHY -0.0000
-3.0755 <s> WRONG 0.0000
-2.7745 <s> YES 0.0000
-1.9294 <s> YOU -0.2275
-3.3766 <s> YOUR -0.2919
-1.4624 A BAD 0.0000
-1.7634 A BITCH 0.0000
-1.7634 A HUMAN 0.0000
-1.4624 A JOKE 0.0000
-1.4624 A KIND 0.0000
-1.7634 A LARGE 0.0000
-1.7634 A MACHINE 0.0000
-1.7634 A MEDIUM 0.0000
-1.7634 A MEETING -0.1761
-1.4624 A PIZZA 0.0000
-1.7634 A REBOOT -0.1761
-1.7634 A REMINDER 0.0000
-0.9183 A ROBOT 0.0000
-1.7634 A SENSE 0.0000
-1.7634 A SMALL 0.0000
-1.7634 A SPECIAL -0.1761
-1.7634 A STORY 0.0000
-1.7634 A UNIQUE 0.0000
-1.7634 A VIRGIN 0.0000
-0.3010 A.M </s> -0.1762
-0.9031 ABOUT </s> -0.1762
-1.2041 ABOUT IT -0.1549
-1.2041 ABOUT MY -0.2762
-0.9031 ABOUT THIS 0.0000
-1.2041 ABOUT WHAT -0.2928
-1.2041 ABOUT WHO -0.2808
-0.7782 AFTER DEATH 0.0000
-0.7782 AFTER I -0.2985
-0.7782 AFTER WE -0.1761
-0.3010 AFTERNOON </s> -0.1762
-0.3010 AGE </s> -0.1762
-0.3010 AIR CONDITIONING 0.0000
-0.3010 ALARM AT -0.0045
-0.3010 ALBUM </s> -0.1762
-0.3010 ALL THE -0.2931
-0.3010 ALONE </s> -0.1762
-0.3010 ALREADY TOLD 0.0000
-1.7160 AM </s> -0.1762
-1.4150 AM ASKING 0.0000
-1.7160 AM AWARE 0.0000
-1.4150 AM DEPRESSED 0.0000
-1.7160 AM DEPRESSION 0.0000
-1.7160 AM FEELING 0.0000
-1.4150 AM GOING 0.0000
-1.7160 AM HANDSOME 0.0000
-1.7160 AM HERE -0.0458
-1.7160 AM HUNGRY 0.0000
-1.2389 AM I -0.2934
-1.7160 AM LEAVING 0.0000
-1.4150 AM ON -0.1549
-1.7160 AM RIGHT -0.1761
-1.7160 AM SAYING 0.0000
-1.7160 AM SLEEPY 0.0000
-1.4150 AM SORRY 0.0000
-1.7160 AM SURE 0.0000
-1.7160 AM SURPRISED 0.0000
-0.3010 AMAZING </s> -0.1762
-0.3274 AN ALARM 0.0000
-1.7076 AN EMAIL -0.0792
-2.3096 AN EVENT 0.0000
-2.3096 AN ORDER -0.2553
-0.6021 ANNOYING </s> -0.1762
-0.6021 ANNOYING ME -0.1445
-0.3010 ANSWER </s> -0.1762
-0.7782 ANY BODY -0.1249
-1.0792 ANY FRIENDS 0.0000
-0.7782 ANY ONE -0.2632
-1.0792 ANY SLEEP -0.1461
-0.3010 APOLOGIZE </s> -0.1762
-1.6628 ARE </s> -0.1762
-1.3617 ARE A -0.2366
-1.9638 ARE ANNOYING -0.1761
-1.6628 ARE BORING 0.0000
-1.9638 ARE FUNNY 0.0000
-1.6628 ARE IN -0.2272
-1.9638 ARE MEAN -0.0969
-1.9638 ARE MY -0.2762
-1.6628 ARE NOT -0.2632
-1.9638 ARE ONE -0.2632
-1.6628 ARE SO -0.2430
-1.6628 ARE STUPID -0.1761
-1.9638 ARE VERY -0.1461
-1.9638 ARE WE -0.1761
-0.6416 ARE YOU -0.2349
-1.6628 ARE YOUR -0.2825
-0.6021 AROUND </s> -0.1762
-0.6021 AROUND THE -0.2971
-0.3010 ASK YOU -0.2947
-0.6021 ASKING ABOUT -0.2430
-0.6021 ASKING FOR -0.2688
-1.3847 AT EIGHT 0.0000
-1.3847 AT ELEVEN 0.0000
-1.3847 AT FIVE 0.0000
-1.3847 AT FOUR 0.0000
-2.2878 AT NIGHT 0.0000
-1.3847 AT NINE 0.0000
-1.3847 AT ONE -0.1249
-1.3847 AT SEVEN 0.0000
-1.3847 AT SIX 0.0000
-1.3847 AT TEN 0.0000
-1.3847 AT THREE 0.0000
-1.3847 AT TWELVE 0.0000
-1.3847 AT TWO 0.0000
-0.3010 AWARE OF -0.2808
-0.6021 AWAY </s> -0.1762
-0.6021 AWAY NOW 0.0000
-0.6021 BACK </s> -0.1762
-0.6021 BACK TO -0.2935
-0.3010 BAD DAY -0.0792
-1.3424 BE AMAZING 0.0000
-1.3424 BE BACK -0.1761
-1.3424 BE FRIENDS 0.0000
-1.0414 BE LATE 0.0000
-1.3424 BE NICE -0.0969
-1.0414 BE POLITE 0.0000
-1.3424 BE QUIET 0.0000
-1.3424 BE SO -0.2730
-1.3424 BE STUPID -0.1761
-0.3010 BEAUTIFUL </s> -0.1762
-1.3010 BECAUSE </s> -0.1762
-0.6021 BECAUSE I -0.2299
-0.6990 BECAUSE YOU -0.2667
-0.3010 BED </s> -0.1762
-0.3010 BEEN </s> -0.1762
-0.3010 BEFORE </s> -0.1762
-0.3010 BEHAVE YOURSELF 0.0000
-0.3010 BELEIVE IN -0.2109
-0.6021 BELIEVE ME -0.1445
-0.6021 BELIEVE YOU -0.2667
-0.3010 BEST WEBSITE -0.1761
-0.3010 BITCH </s> -0.1762
-0.4771 BODY ABOUT -0.2430
-0.7782 BODY LIKES 0.0000
-0.3010 BOOK </s> -0.1762
-0.6021 BORING </s> -0.1762
-0.6021 BORING ME -0.1445
-0.3010 BORN </s> -0.1762
-0.3010 BREAKFAST TODAY 0.0000
-0.6021 BUT DO -0.2600
-0.6021 BUT DONT -0.2632
-0.3010 CALANDER </s> -0.1762
-1.2788 CAN BE -0.2596
-1.2788 CAN DO -0.2939
-1.2788 CAN TELL -0.1249
-0.4658 CAN YOU -0.2751
-0.3010 CANCER </s> -0.1762
-0.3010 CARE OF -0.2808
-0.3010 CERTAINLY </s> -0.1762
-0.3010 CHANDELIER </s> -0.1762
-0.3010 CHARGING STATION 0.0000
-0.3010 CLEAN THE -0.2931
-0.3010 COLD </s> -0.1762
-0.3010 COLOR </s> -0.1762
-0.7782 COME </s> -0.1762
-0.7782 COME FROM 0.0000
-0.7782 COME ON -0.1963
-0.3010 CONDITIONING </s> -0.1762
-0.3010 COURSE </s> -0.1762
-0.3010 CREATED YOU -0.2667
-0.6021 CREATOR </s> -0.1762
-0.6021 CREATOR OF -0.2596
-0.3010 CUTE </s> -0.1762
-0.3010 DADDY </s> -0.1762
-0.3979 DAY </s> -0.1762
-1.0000 DAY IS -0.2821
-0.3010 DEATH </s> -0.1762
-0.3010 DELICIOUS </s> -0.1762
-0.3010 DEPRESSED </s> -0.1762
-0.3010 DEPRESSION </s> -0.1762
-0.3010 DESIGNED YOU -0.2667
-1.3424 DID </s> -0.1762
-0.7404 DID NOT -0.2632
-0.5643 DID YOU -0.2850
-0.3010 DIDNT ASK 0.0000
-0.3010 DIE </s> -0.1762
-0.3010 DIFFERENT THAT -0.2915
-0.3010 DIM THE -0.2419
-0.3010 DINNER TODAY 0.0000
-1.3082 DO </s> -0.1762
-1.7853 DO IT -0.1549
-1.0450 DO NOT -0.1761
-1.6092 DO ROBOTS -0.1461
-1.7853 DO SOMETHING -0.0580
-2.0864 DO TODAY 0.0000
-2.0864 DO TONIGHT 0.0000
-2.0864 DO WHEN 0.0000
-0.5549 DO YOU -0.2237
-0.3010 DOES THE -0.2931
-0.3010 DOESNT ANY -0.2218
-0.3010 DOING TODAY 0.0000
-1.0792 DONT </s> -0.1762
-0.7782 DONT KNOW -0.0580
-1.0792 DONT MIND 0.0000
-1.0792 DONT TELL -0.2762
-1.0792 DONT THINK -0.2430
-0.6021 EARTH REVOLVE 0.0000
-0.6021 EARTH ROUND 0.0000
-0.3010 EAT </s> -0.1762
-1.2041 EIGHT A.M 0.0000
-0.9031 EIGHT FIFTEEN 0.0000
-0.9031 EIGHT FORTY 0.0000
-1.2041 EIGHT P.M 0.0000
-0.9031 EIGHT THIRTY 0.0000
-1.2041 ELEVEN A.M 0.0000
-0.9031 ELEVEN FIFTEEN 0.0000
-0.9031 ELEVEN FORTY 0.0000
-1.2041 ELEVEN P.M 0.0000
-0.9031 ELEVEN THIRTY 0.0000
-1.0000 EMAIL MY -0.2499
-1.0000 EMAIL REMINDER 0.0000
-0.5229 EMAIL TO -0.2780
-0.3010 EVENING </s> -0.1762
-0.3010 EVENT IN -0.2730
-0.3010 EVERY DAY -0.0792
-0.3010 EVERYONE </s> -0.1762
-0.3010 EXACTLY WHAT -0.2714
-0.3010 EXIST </s> -0.1762
-0.3010 FACE </s> -0.1762
-1.2041 FAVORITE ALBUM 0.0000
-1.2041 FAVORITE BOOK 0.0000
-1.2041 FAVORITE COLOR 0.0000
-1.2041 FAVORITE MOVIE 0.0000
-1.2041 FAVORITE MUSIC 0.0000
-1.2041 FAVORITE PLACE -0.1761
-1.2041 FAVORITE SONG 0.0000
-1.2041 FAVORITE WEBSITE -0.1761
-0.3010 FEED </s> -0.1762
-0.6021 FEEL SAD 0.0000
-0.6021 FEEL VERY -0.2553
-0.3010 FEELING SAD 0.0000
-0.3010 FEELINGS </s> -0.1762
-0.6021 FIFTEEN A.M 0.0000
-0.6021 FIFTEEN P.M 0.0000
-0.3010 FISH ARE -0.2915
-0.6922 FIVE A.M 0.0000
-1.5051 FIVE FIFTEEN 0.0000
-1.5051 FIVE FORTY 0.0000
-0.6922 FIVE P.M 0.0000
-1.5051 FIVE THIRTY 0.0000
-1.1461 FOR </s> -0.1762
-1.1461 FOR A -0.2858
-1.1461 FOR BREAKFAST 0.0000
-1.1461 FOR DINNER 0.0000
-1.1461 FOR LUNCH 0.0000
-0.8451 FOR YOUR -0.2825
-0.3010 FORGET WHAT -0.2714
-0.3010 FORTY FIVE -0.0746
-1.2041 FOUR A.M 0.0000
-0.9031 FOUR FIFTEEN 0.0000
-0.9031 FOUR FORTY 0.0000
-1.2041 FOUR P.M 0.0000
-0.9031 FOUR THIRTY 0.0000
-0.3010 FRIENDS </s> -0.1762
-0.3010 FROM </s> -0.1762
-0.6021 FUCK OFF -0.2218
-0.6021 FUCK YOU -0.2667
-0.3010 FUNNY </s> -0.1762
-0.3010 FUTURE </s> -0.1762
-0.6021 GET ANY -0.2632
-0.6021 GET OUT -0.2218
-0.3010 GHOSTS </s> -0.1762
-0.3010 GIVES YOU -0.2995
-1.2041 GO </s> -0.1762
-0.9031 GO AWAY 0.0000
-1.2041 GO BACK -0.1761
-0.9031 GO OUT -0.1249
-0.9031 GO TO -0.2858
-0.3010 GOD </s> -0.1762
-0.3010 GOING TO -0.2858
-0.8451 GOOD </s> -0.1762
-1.1461 GOOD AFTERNOON 0.0000
-1.1461 GOOD EVENING 0.0000
-1.1461 GOOD MORNING 0.0000
-1.1461 GOOD NIGHT 0.0000
-1.1461 GOOD TO -0.2935
-0.3010 GUESS SO -0.2109
-0.4771 HAD A -0.2858
-0.7782 HAD SEX -0.1761
-0.3010 HANDSOME </s> -0.1762
-0.3010 HAPPENS AFTER 0.0000
-0.3010 HAPPY </s> -0.1762
-0.9031 HATE IT -0.1549
-0.9031 HATE MY -0.2762
-0.9031 HATE ROBOTS -0.2041
-0.9031 HATE YOU -0.2667
-1.3802 HAVE A -0.2935
-1.3802 HAVE ANY -0.2632
-1.3802 HAVE CANCER 0.0000
-1.3802 HAVE FEELINGS 0.0000
-0.9031 HAVE FOR -0.1963
-1.3802 HAVE FRIENDS 0.0000
-1.0792 HAVE TO -0.2700
-1.0792 HAVE YOU -0.2979
-0.3010 HEAR ME -0.1445
-0.3010 HEAVEN </s> -0.1762
-0.3010 HELL </s> -0.1762
-0.7782 HELLO </s> -0.1762
-0.7782 HELLO RUBY -0.0580
-0.7782 HELLO THERE 0.0000
-0.3010 HELPFUL </s> -0.1762
-0.3010 HER I -0.2269
-0.3522 HERE </s> -0.1762
-1.2553 HERE OR 0.0000
-0.7782 HEY </s> -0.1762
-0.7782 HEY RUBY -0.0580
-0.7782 HEY THERE 0.0000
-0.3010 HI RUBY -0.0580
-0.3010 HIM I -0.2269
-0.3010 HOBBIES </s> -0.1762
-0.3010 HOT IN -0.2730
-0.3010 HOUSE </s> -0.1762
-1.0792 HOW ARE -0.1885
-1.3802 HOW COME -0.2218
-1.3802 HOW DO -0.1592
-1.3802 HOW HAVE -0.2632
-1.3802 HOW IS -0.2470
-1.0792 HOW MANY 0.0000
-1.3802 HOW OLD 0.0000
-1.0792 HOW SMART -0.1249
-1.3802 HOW WAS -0.2632
-0.3010 HUMAN </s> -0.1762
-0.6021 HUMOR </s> -0.1762
-0.6021 HUMOR ME -0.1445
-0.3010 HUNGRY </s> -0.1762
-0.6021 HURT ME -0.1445
-0.6021 HURT YOUR -0.2919
-2.2355 I </s> -0.1762
-2.2355 I ALREADY 0.0000
-0.8738 I AM -0.0474
-2.2355 I APOLOGIZE 0.0000
-2.2355 I BEAUTIFUL 0.0000
-2.2355 I BELEIVE 0.0000
-1.6335 I DID -0.2139
-1.9345 I DIDNT 0.0000
-2.2355 I DIE 0.0000
-1.0894 I DO -0.2275
-1.5366 I DONT -0.0669
-1.9345 I FEEL 0.0000
-2.2355 I GUESS 0.0000
-1.9345 I HAD -0.1249
-2.2355 I HANDSOME 0.0000
-1.6335 I HATE 0.0000
-1.7584 I HAVE -0.2430
-2.2355 I HURT -0.1761
-2.2355 I JUST -0.2430
-1.7584 I LIKE -0.2389
-2.2355 I LOVE -0.2430
-2.2355 I MEANT 0.0000
-2.2355 I REALLY -0.2218
-1.6335 I SAID 0.0000
-2.2355 I THINK -0.1761
-2.2355 I WANT -0.0969
-1.6335 I WILL 0.0000
-2.2355 I WOULD -0.2430
-0.3010 IMPOSSIBLE </s> -0.1762
-1.5051 IN DEATH 0.0000
-1.5051 IN GHOSTS 0.0000
-1.5051 IN GOD 0.0000
-1.5051 IN HEAVEN 0.0000
-1.5051 IN HELL 0.0000
-1.2041 IN HERE 0.0000
-1.2041 IN MY -0.2499
-0.8062 IN THE -0.2767
-1.5051 IN TIME -0.0969
-1.5051 IN YOU -0.2667
-0.3010 INTELLIGENT </s> -0.1762
-0.3010 INTERESTING </s> -0.1762
-0.3010 INTERESTS </s> -0.1762
-0.3010 INTERNET </s> -0.1762
-0.3010 INVENTED YOU -0.2667
-0.3010 INVENTOR </s> -0.1762
-1.9731 IS </s> -0.1762
-1.6721 IS A -0.2366
-1.9731 IS DELICIOUS 0.0000
-1.6721 IS EXACTLY 0.0000
-1.9731 IS GOD 0.0000
-1.9731 IS HOT 0.0000
-1.9731 IS IMPOSSIBLE 0.0000
-1.3711 IS IT -0.1249
-1.9731 IS MEAN -0.0969
-1.9731 IS NEW 0.0000
-1.9731 IS NICE -0.0969
-1.6721 IS NOT -0.2825
-1.9731 IS SCARY 0.0000
-0.9317 IS THE -0.2419
-1.9731 IS VERY -0.2553
-0.7690 IS YOUR -0.1249
-0.5441 IT </s> -0.1762
-1.6232 IT HOT 0.0000
-1.1461 IT IS -0.2869
-1.6232 IT JUST -0.2430
-1.6232 IT SOMETIME 0.0000
-1.3222 IT TASTES 0.0000
-1.6232 IT TOO 0.0000
-0.3010 ITS DELICIOUS 0.0000
-0.3010 JOKE </s> -0.1762
-0.9031 JUST BECAUSE -0.2788
-0.9031 JUST ME -0.1445
-0.9031 JUST SAID -0.1461
-0.9031 JUST TELL -0.1427
-0.3010 KIDDING ME -0.1445
-0.9031 KILL A -0.2935
-0.9031 KILL MYSELF 0.0000
-0.6021 KILL YOU -0.2667
-0.3010 KIND </s> -0.1762
-0.5441 KNOW </s> -0.1762
-0.8451 KNOW IT -0.1549
-1.1461 KNOW WHAT -0.2928
-0.3010 LANGUAGES </s> -0.1762
-0.3010 LARGE PIZZA 0.0000
-0.3010 LATE </s> -0.1762
-0.3010 LEARN </s> -0.1762
-0.6021 LEAVE </s> -0.1762
-0.6021 LEAVE ME -0.2953
-0.3010 LEAVING </s> -0.1762
-0.3010 LEMONS </s> -0.1762
-0.3010 LET US 0.0000
-0.6021 LIFE </s> -0.1762
-0.9031 LIFE GIVES 0.0000
-0.9031 LIFE IS -0.2917
-0.6021 LIGHTS </s> -0.1762
-1.0000 LIGHTS OFF -0.2218
-0.8239 LIGHTS ON -0.1963
-1.4771 LIKE </s> -0.1762
-1.1761 LIKE A -0.2452
-1.1761 LIKE IT -0.1402
-1.4771 LIKE LISTENING 0.0000
-1.4771 LIKE MAKING 0.0000
-1.4771 LIKE ME -0.1445
-1.4771 LIKE MONEY 0.0000
-1.4771 LIKE PETS 0.0000
-1.4771 LIKE SEX -0.1761
-1.1761 LIKE THAT -0.2293
-1.1761 LIKE YOU -0.2667
-0.3010 LIKES ME -0.1445
-0.3010 LISTENING TO -0.2780
-0.6021 LOOK HERE -0.0458
-0.6021 LOOK LIKE -0.2711
-0.6021 LOVE ME -0.1445
-0.9031 LOVE TO -0.2700
-0.9031 LOVE YOU -0.2667
-0.3010 LUNCH TODAY 0.0000
-0.3010 MACHINE </s> -0.1762
-0.3010 MAKE ME -0.2953
-0.3010 MAKES YOU -0.2915
-0.3010 MAKING MONEY 0.0000
-0.6021 MANY FISH 0.0000
-0.6021 MANY STARS 0.0000
-0.3010 MARRIED </s> -0.1762
-0.3010 MASTER </s> -0.1762
-0.3010 MAYBE PIZZA 0.0000
-0.5191 ME </s> -0.1762
-1.2788 ME A -0.2619
-1.5798 ME ABOUT -0.2430
-1.8808 ME ALONE 0.0000
-1.5798 ME AN -0.2924
-1.8808 ME HAPPY 0.0000
-1.8808 ME OF -0.2808
-1.5798 ME SOMETHING -0.0580
-1.8808 ME THINGS 0.0000
-1.8808 ME TO -0.2935
-0.4260 MEAN </s> -0.1762
-0.9031 MEAN IT -0.1549
-0.3010 MEANT </s> -0.1762
-0.3010 MEDIUM PIZZA 0.0000
-0.3010 MEET YOU -0.2667
-0.6021 MEETING IN -0.2730
-0.6021 MEETING YOU -0.2667
-0.3010 MIND </s> -0.1762
-0.3010 MONEY </s> -0.1762
-0.3010 MORNING </s> -0.1762
-0.3010 MOVIE </s> -0.1762
-0.3010 MUSIC </s> -0.1762
-0.9542 MY CALANDER 0.0000
-1.2553 MY FUTURE 0.0000
-1.2553 MY LIFE -0.1761
-1.2553 MY NAME -0.1761
-1.2553 MY NEWS -0.2218
-1.2553 MY PET 0.0000
-0.9542 MY WIFE 0.0000
-0.3010 MYSELF </s> -0.1762
-0.6021 NAME </s> -0.1762
-0.6021 NAME IS -0.2964
-0.6021 NEED A -0.2935
-0.6021 NEED ME -0.2953
-0.3010 NEVER </s> -0.1762
-0.3010 NEW IN -0.2272
-0.4771 NEWS </s> -0.1762
-0.7782 NEWS FEED 0.0000
-0.4260 NICE </s> -0.1762
-0.9031 NICE TO -0.2935
-0.3010 NIGHT </s> -0.1762
-1.2041 NINE A.M 0.0000
-0.9031 NINE FIFTEEN 0.0000
-0.9031 NINE FORTY 0.0000
-1.2041 NINE P.M 0.0000
-0.9031 NINE THIRTY 0.0000
-1.0792 NO </s> -0.1762
-1.0792 NO BODY -0.2218
-0.4771 NO I -0.2502
-1.3802 NOT </s> -0.1762
-1.3802 NOT ASK 0.0000
-1.6812 NOT BELIEVE -0.1761
-1.3802 NOT HELPFUL 0.0000
-1.2041 NOT KNOW -0.0580
-1.6812 NOT LIKE -0.2711
-1.6812 NOT MEAN -0.2430
-1.6812 NOT MIND 0.0000
-1.6812 NOT NICE -0.0969
-1.6812 NOT POSSIBLE 0.0000
-1.6812 NOT REALLY -0.2218
-1.6812 NOT SAY -0.2218
-1.6812 NOT TELL -0.2762
-1.3802 NOT VERY -0.1461
-1.2041 NOT WANT -0.0512
-1.6812 NOT WHAT -0.2714
-0.3010 NOW </s> -0.1762
-0.3010 OCEAN </s> -0.1762
-1.3424 OF </s> -0.1762
-1.0414 OF A -0.2858
-1.3424 OF COURSE 0.0000
-1.3424 OF HERE -0.0458
-1.3424 OF HUMOR -0.1761
-1.3424 OF LIFE -0.1761
-1.3424 OF THAT -0.2293
-1.0414 OF THE -0.2931
-1.3424 OF YOURSELF -0.1249
-0.7782 OFF </s> -0.1762
-1.3802 OFF </s><s> 0.0000
-0.5351 OFF THE -0.1941
-0.3010 OLD ARE -0.1885
-0.6690 ON </s> -0.1762
-0.5441 ON THE -0.1839
-1.3802 ONE A.M 0.0000
-1.0792 ONE FIFTEEN 0.0000
-1.0792 ONE FORTY 0.0000
-1.3802 ONE LOVE -0.1761
-1.0792 ONE OF -0.2596
-1.3802 ONE P.M 0.0000
-1.0792 ONE THIRTY 0.0000
-1.3802 ONE WOULD -0.2430
-0.3010 OPINION </s> -0.1762
-0.3010 OR IS -0.2821
-0.5229 ORDER A -0.2780
-1.0000 ORDER FOR -0.2688
-1.0000 ORDER ME -0.2775
-0.6021 OTHER LANGUAGES 0.0000
-0.6021 OTHER ROBOTS -0.2041
-0.7782 OUT </s> -0.1762
-0.7782 OUT OF -0.2808
-0.7782 OUT WITH 0.0000
-0.3010 OVER HERE -0.0458
-0.3010 P.M </s> -0.1762
-0.3010 PET </s> -0.1762
-0.3010 PETS </s> -0.1762
-0.3010 PIZZA </s> -0.1762
-0.6021 PLACE AN -0.2989
-0.6021 PLACE IN -0.2272
-0.3010 PLAY SOME -0.2218
-0.3010 PLEASURE MEETING -0.1761
-0.3010 POLITE </s> -0.1762
-0.3010 POSSIBLE </s> -0.1762
-0.3010 PROBLEM </s> -0.1762
-0.3010 PROVE IT -0.1549
-0.6021 PURPOSE </s> -0.1762
-0.6021 PURPOSE OF -0.2808
-0.3010 QUIET </s> -0.1762
-0.6021 READ MY -0.2762
-0.6021 READ THE -0.2931
-0.7782 REALLY </s> -0.1762
-0.7782 REALLY GOOD -0.2341
-0.7782 REALLY LIKE -0.2711
-0.6021 REBOOT </s> -0.1762
-0.6021 REBOOT YOU -0.2667
-0.3010 REMIND ME -0.2953
-0.3010 REMINDER </s> -0.1762
-0.3010 REMOTE </s> -0.1762
-0.3010 REVOLVE AROUND -0.1761
-0.6021 RIGHT HERE -0.0458
-0.6021 RIGHT NOW 0.0000
-0.3010 ROBOT </s> -0.1762
-0.6990 ROBOTS </s> -0.1762
-1.0000 ROBOTS DIE 0.0000
-1.0000 ROBOTS EAT 0.0000
-1.0000 ROBOTS HAVE -0.2825
-0.3010 ROUND </s> -0.1762
-0.3680 RUBY </s> -0.1762
-1.1461 RUBY ARE -0.1885
-0.6021 RUDE </s> -0.1762
-0.6021 RUDE RUBY -0.0580
-0.3010 SAD </s> -0.1762
-0.5229 SAID </s> -0.1762
-1.0000 SAID SO -0.2109
-1.0000 SAID THAT -0.2293
-0.4771 SAY SOMETHING -0.0580
-0.7782 SAY THAT -0.2293
-0.3010 SAYING </s> -0.1762
-0.3010 SCARY </s> -0.1762
-0.3010 SCHEDULE A -0.2935
-0.3010 SECRET OF -0.2596
-0.9031 SEE </s> -0.1762
-0.6021 SEE ME -0.1445
-0.9031 SEE THE -0.2931
-0.6021 SEND AN -0.2924
-0.6021 SEND ME -0.2894
-0.3010 SENSE OF -0.2808
-0.3010 SERVE ME -0.1445
-0.3010 SET UP -0.0087
-1.2041 SEVEN A.M 0.0000
-0.9031 SEVEN FIFTEEN 0.0000
-0.9031 SEVEN FORTY 0.0000
-1.2041 SEVEN P.M 0.0000
-0.9031 SEVEN THIRTY 0.0000
-0.6021 SEX </s> -0.1762
-0.6021 SEX BEFORE 0.0000
-0.3010 SHEDULE AN -0.2989
-0.5229 SHOULD I -0.2642
-0.6990 SHOULD TRY -0.1249
-0.3010 SHUT UP -0.2966
-1.2041 SIX A.M 0.0000
-0.9031 SIX FIFTEEN 0.0000
-0.9031 SIX FORTY 0.0000
-1.2041 SIX P.M 0.0000
-0.9031 SIX THIRTY 0.0000
-0.3010 SKY </s> -0.1762
-0.5229 SLEEP </s> -0.1762
-1.0000 SLEEP AT -0.2988
-1.0000 SLEEP TIGHT 0.0000
-0.3010 SLEEPY </s> -0.1762
-0.3010 SMALL PIZZA 0.0000
-0.7782 SMART </s> -0.1762
-0.7782 SMART ARE -0.1885
-0.7782 SMART DO -0.1592
-0.3010 SNOW </s> -0.1762
-0.7270 SO </s> -0.1762
-1.2041 SO ANNOYING -0.1761
-1.2041 SO CUTE 0.0000
-1.2041 SO STUPID -0.1761
-1.2041 SO WHAT -0.2051
-1.2041 SO WHATS -0.1761
-0.3010 SOFTWARE VERSION 0.0000
-0.7782 SOME MUSIC 0.0000
-0.4771 SOME TIMES 0.0000
-0.6690 SOMETHING FUNNY 0.0000
-0.6690 SOMETHING INTERESTING 0.0000
-1.1461 SOMETHING TO -0.2935
-0.3010 SOMETIME </s> -0.1762
-0.3010 SONG </s> -0.1762
-0.6021 SORRY </s> -0.1762
-0.6021 SORRY I -0.2985
-0.3010 SOUND LIKE -0.2711
-0.3010 SPEAK OTHER -0.1761
-0.6021 SPECIAL </s> -0.1762
-0.6021 SPECIAL ROBOT 0.0000
-0.3010 SPOTLIGHTS </s> -0.1762
-0.3010 STARS ARE -0.2915
-0.3010 STATION </s> -0.1762
-0.6021 STAY HERE -0.0458
-0.6021 STAY WHERE -0.2688
-0.3010 STORY </s> -0.1762
-0.6021 STUPID </s> -0.1762
-0.6021 STUPID SOME -0.1249
-0.3010 SUGGEST SOMETHING -0.2688
-0.3010 SUN </s> -0.1762
-0.3010 SURE YOU -0.2915
-0.3010 SURPRISED ANY -0.2218
-0.7782 SWITCH OFF -0.1513
-0.9542 SWITCH ON -0.1549
-0.6532 SWITCH THE -0.2234
-0.3010 TAKE CARE 0.0000
-0.6021 TALK </s> -0.1762
-0.6021 TALK TO -0.2858
-0.6021 TASTES GOOD -0.2341
-0.6021 TASTES REALLY -0.2218
-0.6021 TELEVISION </s> -0.1762
-0.9031 TELEVISION OFF -0.1996
-0.9031 TELEVISION ON -0.1963
-1.2553 TELL ANY -0.2218
-1.5563 TELL EVERYONE 0.0000
-1.2553 TELL HER 0.0000
-1.2553 TELL HIM 0.0000
-0.5149 TELL ME -0.0637
-1.2041 TEN A.M 0.0000
-0.9031 TEN FIFTEEN 0.0000
-0.9031 TEN FORTY 0.0000
-1.2041 TEN P.M 0.0000
-0.9031 TEN THIRTY 0.0000
-0.3010 THANK YOU -0.2667
-0.3010 THANKS </s> -0.1762
-0.8177 THAT </s> -0.1762
-0.7597 THAT IS -0.2624
-1.6628 THAT OTHER -0.1761
-0.9638 THAT WAS -0.0669
-1.3617 THAT WOULD -0.1761
-1.5643 THE AIR 0.0000
-2.0414 THE BEST 0.0000
-1.5643 THE CHANDELIER 0.0000
-2.0414 THE CREATOR -0.1761
-1.7404 THE EARTH 0.0000
-1.7404 THE FUTURE 0.0000
-1.7404 THE HOUSE 0.0000
-2.0414 THE INTERNET 0.0000
-1.0414 THE LIGHTS 0.0000
-1.7404 THE NEWS -0.1249
-2.0414 THE OCEAN 0.0000
-1.7404 THE PROBLEM 0.0000
-2.0414 THE PURPOSE -0.1761
-2.0414 THE REMOTE 0.0000
-2.0414 THE SECRET 0.0000
-2.0414 THE SKY 0.0000
-2.0414 THE SNOW 0.0000
-2.0414 THE SPOTLIGHTS 0.0000
-2.0414 THE SUN 0.0000
-1.1383 THE TELEVISION 0.0000
-1.7404 THE TIME -0.0969
-1.7404 THE UNIVERSE 0.0000
-1.7404 THE WAY 0.0000
-1.7404 THE WEATHER 0.0000
-2.0414 THE WHOLE 0.0000
-2.0414 THE WORLD 0.0000
-0.3010 THERE </s> -0.1762
-0.3010 THEY DO -0.2791
-0.3010 THINGS </s> -0.1762
-0.6021 THINK I -0.2387
-0.9031 THINK SO -0.2109
-0.9031 THINK YOU -0.2684
-0.3010 THINKING ABOUT -0.2430
-0.6021 THIRTY A.M 0.0000
-0.6021 THIRTY P.M 0.0000
-0.3010 THIS </s> -0.1762
-1.2041 THREE A.M 0.0000
-0.9031 THREE FIFTEEN 0.0000
-0.9031 THREE FORTY 0.0000
-1.2041 THREE P.M 0.0000
-0.9031 THREE THIRTY 0.0000
-0.3010 TIGHT </s> -0.1762
-0.4260 TIME </s> -0.1762
-0.9031 TIME IS -0.2821
-0.3010 TIMES </s> -0.1762
-1.1614 TO </s> -0.1762
-1.4624 TO BE -0.2374
-1.7634 TO BED 0.0000
-1.7634 TO DO -0.2791
-1.2863 TO GO -0.2109
-1.4624 TO KILL -0.0969
-1.7634 TO KNOW -0.1549
-1.7634 TO LEAVE -0.1761
-1.7634 TO MAKE 0.0000
-1.4624 TO ME -0.1445
-1.7634 TO MEET 0.0000
-1.7634 TO MUSIC 0.0000
-1.7634 TO MY -0.2499
-1.7634 TO MYSELF 0.0000
-1.7634 TO REBOOT -0.1761
-1.7634 TO REMIND 0.0000
-1.7634 TO SERVE 0.0000
-1.7634 TO SLEEP -0.1461
-1.7634 TO THE -0.2931
-1.7634 TO TO -0.2935
-1.7634 TO YOUR -0.2919
-0.3010 TO</S> </s> -0.3010
-0.3010 TODAY </s> -0.1762
-0.3010 TOLD YOU -0.2667
-0.3010 TONIGHT </s> -0.1762
-0.3010 TOO </s> -0.1762
-0.6021 TRAVEL IN -0.2872
-0.6021 TRAVEL TO -0.2935
-0.4771 TRY IT -0.1402
-0.7782 TRY TO -0.2858
-1.4472 TURN AROUND -0.1761
-0.8451 TURN OFF -0.1513
-0.8451 TURN ON -0.1549
-0.7482 TURN THE -0.2234
-1.2041 TWELVE A.M 0.0000
-0.9031 TWELVE FIFTEEN 0.0000
-0.9031 TWELVE FORTY 0.0000
-1.2041 TWELVE P.M 0.0000
-0.9031 TWELVE THIRTY 0.0000
-1.2041 TWO A.M 0.0000
-0.9031 TWO FIFTEEN 0.0000
-0.9031 TWO FORTY 0.0000
-1.2041 TWO P.M 0.0000
-0.9031 TWO THIRTY 0.0000
-0.6021 UNDERSTAND ME -0.1445
-0.6021 UNDERSTAND WHAT -0.2714
-0.3010 UNDERSTANDING ME -0.1445
-0.3010 UNDERTAND WHAT -0.2714
-0.3010 UNIQUE ROBOT 0.0000
-0.3010 UNIVERSE </s> -0.1762
-1.9956 UP </s> -0.1762
-2.2967 UP A -0.2935
-0.3144 UP AN -0.0248
-0.3010 US TALK -0.1761
-0.3010 VERSION </s> -0.1762
-1.0000 VERY COLD 0.0000
-0.5229 VERY HELPFUL 0.0000
-1.0000 VERY SAD 0.0000
-0.3010 VIRGIN </s> -0.1762
-1.2041 WANT </s> -0.1762
-0.4260 WANT TO -0.2278
-1.2041 WANT TO</S> 0.0000
-0.6021 WAS NOT -0.2533
-0.7782 WAS RUDE 0.0000
-1.0792 WAS YOUR -0.2919
-0.3010 WAY </s> -0.1762
-0.6021 WE </s> -0.1762
-0.6021 WE DIE 0.0000
-0.6021 WEATHER LIKE -0.2863
-0.6021 WEATHER TODAY 0.0000
-0.6021 WEBSITE </s> -0.1762
-0.6021 WEBSITE IN -0.2272
-0.3010 WERE YOU -0.2995
-1.7243 WHAT </s> -0.1762
-1.5482 WHAT ARE -0.1761
-1.5482 WHAT CAN -0.1192
-2.0253 WHAT DAY -0.2553
-1.5482 WHAT DID -0.1627
-1.5482 WHAT DO -0.1592
-1.5482 WHAT HAPPENS 0.0000
-1.1802 WHAT I -0.2208
-0.7031 WHAT IS -0.1341
-1.5482 WHAT MAKES 0.0000
-1.5482 WHAT SHOULD -0.1461
-2.0253 WHAT TIME -0.2430
-0.6021 WHATS THE -0.2931
-0.6021 WHATS UP -0.2966
-0.3010 WHEN LIFE -0.2430
-0.8451 WHERE ARE -0.1823
-1.1461 WHERE DO -0.1592
-0.8451 WHERE IS -0.2417
-1.1461 WHERE WERE 0.0000
-1.1461 WHERE YOU -0.2684
-1.3424 WHO </s> -0.1762
-1.3424 WHO AM -0.2752
-1.3424 WHO ARE -0.1885
-1.3424 WHO CREATED 0.0000
-1.3424 WHO DESIGNED 0.0000
-1.3424 WHO INVENTED 0.0000
-0.6435 WHO IS -0.1540
-0.3010 WHOLE WORLD 0.0000
-1.1461 WHY </s> -0.1762
-1.1461 WHY ARE -0.1885
-1.1461 WHY DO -0.1592
-1.1461 WHY DOES 0.0000
-1.1461 WHY DOESNT 0.0000
-1.1461 WHY IS -0.2470
-1.1461 WHY NOT -0.2825
-0.3010 WIFE </s> -0.1762
-0.4260 WILL BE -0.2374
-0.9031 WILL KILL -0.1761
-0.3010 WITH ME -0.1445
-0.3010 WORLD </s> -0.1762
-0.6021 WOULD BE -0.2596
-0.9031 WOULD LIKE -0.2711
-0.9031 WOULD LOVE -0.2430
-0.6021 WRONG </s> -0.1762
-0.6021 WRONG ANSWER 0.0000
-0.9031 YES </s> -0.1762
-0.6021 YES I -0.1958
-0.9031 YES THEY 0.0000
-1.1187 YOU </s> -0.1762
-1.8388 YOU A -0.2188
-1.1399 YOU ARE -0.1946
-2.4409 YOU BEEN 0.0000
-1.7419 YOU BELEIVE 0.0000
-2.4409 YOU BORN 0.0000
-1.6628 YOU CAN -0.2264
-2.4409 YOU CLEAN 0.0000
-2.4409 YOU COME -0.2218
-2.4409 YOU DID -0.2808
-2.4409 YOU DIFFERENT 0.0000
-1.9638 YOU DO -0.2754
-2.4409 YOU DOING 0.0000
-2.4409 YOU EAT 0.0000
-2.4409 YOU EXIST 0.0000
-2.1399 YOU FOR -0.2341
-2.4409 YOU FROM 0.0000
-2.4409 YOU GET -0.1761
-2.4409 YOU HAD -0.2218
-1.6628 YOU HAVE -0.1761
-2.4409 YOU HEAR 0.0000
-2.4409 YOU HERE -0.0458
-2.4409 YOU HUMAN 0.0000
-2.4409 YOU HURT -0.1761
-2.4409 YOU INTELLIGENT 0.0000
-2.4409 YOU KIDDING 0.0000
-2.4409 YOU KILL -0.2430
-2.4409 YOU KNOW -0.2688
-2.4409 YOU LEARN 0.0000
-2.4409 YOU LEMONS 0.0000
-1.6628 YOU LIKE -0.2041
-2.4409 YOU LISTENING 0.0000
-2.4409 YOU LOOK -0.1761
-2.4409 YOU LOVE -0.1761
-2.4409 YOU MARRIED 0.0000
-2.4409 YOU MEAN -0.0969
-2.1399 YOU NEED 0.0000
-2.4409 YOU ONE -0.2632
-1.8388 YOU SEE 0.0000
-2.1399 YOU SHOULD -0.2041
-2.1399 YOU SLEEP -0.0792
-2.4409 YOU SMART -0.2218
-2.4409 YOU SOUND 0.0000
-2.4409 YOU SPEAK 0.0000
-2.4409 YOU SPECIAL -0.1761
-2.4409 YOU SUGGEST 0.0000
-2.1399 YOU TELL -0.1427
-2.1399 YOU THAT -0.2293
-2.4409 YOU THE -0.2971
-2.1399 YOU THERE 0.0000
-2.1399 YOU THINK -0.0969
-2.4409 YOU THINKING 0.0000
-2.1399 YOU TRAVEL 0.0000
-2.1399 YOU UNDERSTAND 0.0000
-2.4409 YOU UNDERSTANDING 0.0000
-2.1399 YOU UNDERTAND 0.0000
-1.8388 YOU WANT -0.0512
-2.4409 YOU YOU -0.2995
-1.6812 YOUR AGE 0.0000
-1.6812 YOUR CHARGING 0.0000
-1.6812 YOUR CREATOR -0.1761
-1.6812 YOUR DADDY 0.0000
-1.6812 YOUR DAY -0.0792
-1.6812 YOUR FACE 0.0000
-0.7782 YOUR FAVORITE 0.0000
-1.6812 YOUR FEELINGS 0.0000
-1.6812 YOUR HOBBIES 0.0000
-1.6812 YOUR INTERESTS 0.0000
-1.6812 YOUR INVENTOR 0.0000
-1.6812 YOUR MASTER 0.0000
-1.6812 YOUR NAME -0.1761
-1.3802 YOUR OPINION 0.0000
-1.6812 YOUR PURPOSE -0.1761
-1.6812 YOUR SOFTWARE 0.0000
-0.4771 YOURSELF </s> -0.1762
-0.7782 YOURSELF RUBY -0.0580

\3-grams:
-0.3010 </s><s> </s> </s>
-0.3010 <s> </s> </s>
-1.0263 <s> <s> </s>
-2.7745 <s> <s> ABOUT
-3.0755 <s> <s> ALL
-2.7745 <s> <s> AM
-1.9964 <s> <s> ARE
-2.7745 <s> <s> BE
-2.1213 <s> <s> BECAUSE
-2.7745 <s> <s> BEHAVE
-3.0755 <s> <s> BELIEVE
-2.7745 <s> <s> BUT
-2.0755 <s> <s> CAN
-3.0755 <s> <s> CERTAINLY
-3.0755 <s> <s> CLEAN
-3.0755 <s> <s> COME
-2.5984 <s> <s> DID
-2.5984 <s> <s> DIM
-1.5704 <s> <s> DO
-3.0755 <s> <s> EMAIL
-3.0755 <s> <s> EVERY
-3.0755 <s> <s> FORGET
-2.7745 <s> <s> FUCK
-3.0755 <s> <s> GET
-2.3766 <s> <s> GO
-2.3766 <s> <s> GOOD
-3.0755 <s> <s> HAVE
-2.5984 <s> <s> HELLO
-2.5984 <s> <s> HEY
-3.0755 <s> <s> HI
-1.9964 <s> <s> HOW
-3.0755 <s> <s> HUMOR
-1.3432 <s> <s> I
-3.0755 <s> <s> IS
-2.3766 <s> <s> IT
-3.0755 <s> <s> ITS
-2.7745 <s> <s> JUST
-3.0755 <s> <s> LEAVE
-3.0755 <s> <s> LET
-3.0755 <s> <s> LIFE
-3.0755 <s> <s> LOOK
-3.0755 <s> <s> MAYBE
-3.0755 <s> <s> MY
-3.0755 <s> <s> NEVER
-3.0755 <s> <s> NICE
-2.2974 <s> <s> NO
-3.0755 <s> <s> NOT
-3.0755 <s> <s> OF
-2.4735 <s> <s> ORDER
-3.0755 <s> <s> OVER
-3.0755 <s> <s> PLACE
-3.0755 <s> <s> PLAY
-3.0755 <s> <s> PLEASURE
-3.0755 <s> <s> PROVE
-2.7745 <s> <s> READ
-3.0755 <s> <s> RIGHT
-2.7745 <s> <s> RUBY
-2.7745 <s> <s> SAY
-3.0755 <s> <s> SCHEDULE
-2.4735 <s> <s> SEND
-1.0888 <s> <s> SET
-3.0755 <s> <s> SHEDULE
-3.0755 <s> <s> SHUT
-3.0755 <s> <s> SLEEP
-2.7745 <s> <s> SO
-2.7745 <s> <s> STAY
-2.1213 <s> <s> SWITCH
-3.0755 <s> <s> TAKE
-3.0755 <s> <s> TALK
-2.0342 <s> <s> TELL
-3.0755 <s> <s> THANK
-3.0755 <s> <s> THANKS
-1.8995 <s> <s> THAT
-2.7745 <s> <s> TO
-3.0755 <s> <s> TRY
-1.9294 <s> <s> TURN
-1.4421 <s> <s> WHAT
-3.0755 <s> <s> WHATS
-2.2974 <s> <s> WHERE
-2.0755 <s> <s> WHO
-2.2304 <s> <s> WHY
-2.7745 <s> <s> WRONG
-2.4735 <s> <s> YES
-1.6284 <s> <s> YOU
-3.0755 <s> <s> YOUR
-0.6021 <s> ABOUT WHAT
-0.6021 <s> ABOUT WHO
-0.3010 <s> ALL THE
-0.3010 <s> AM I
-0.3010 <s> ARE YOU
-0.6021 <s> BE POLITE
-0.6021 <s> BE QUIET
-0.5563 <s> BECAUSE I
-0.6532 <s> BECAUSE YOU
-0.3010 <s> BEHAVE YOURSELF
-0.3010 <s> BELIEVE ME
-0.6021 <s> BUT DO
-0.6021 <s> BUT DONT
-0.3010 <s> CAN YOU
-0.3010 <s> CERTAINLY </s>
-0.3010 <s> CLEAN THE
-0.3010 <s> COME ON
-0.3010 <s> DID YOU
-0.3010 <s> DIM THE
-1.3291 <s> DO ROBOTS
-1.5051 <s> DO SOMETHING
-0.3748 <s> DO YOU
-0.3010 <s> EMAIL MY
-0.3010 <s> EVERY DAY
-0.3010 <s> FORGET WHAT
-0.6021 <s> FUCK OFF
-0.6021 <s> FUCK YOU
-0.3010 <s> GET OUT
-0.6990 <s> GO AWAY
-1.0000 <s> GO BACK
-0.6990 <s> GO TO
-1.0000 <s> GOOD AFTERNOON
-1.0000 <s> GOOD EVENING
-1.0000 <s> GOOD MORNING
-1.0000 <s> GOOD NIGHT
-1.0000 <s> GOOD TO
-0.3010 <s> HAVE YOU
-0.7782 <s> HELLO </s>
-0.7782 <s> HELLO RUBY
-0.7782 <s> HELLO THERE
-0.7782 <s> HEY </s>
-0.7782 <s> HEY RUBY
-0.7782 <s> HEY THERE
-0.3010 <s> HI RUBY
-1.0792 <s> HOW ARE
-1.3802 <s> HOW COME
-1.3802 <s> HOW DO
-1.3802 <s> HOW HAVE
-1.3802 <s> HOW IS
-1.0792 <s> HOW MANY
-1.3802 <s> HOW OLD
-1.0792 <s> HOW SMART
-1.3802 <s> HOW WAS
-0.3010 <s> HUMOR ME
-2.0334 <s> I ALREADY
-0.8573 <s> I AM
-2.0334 <s> I APOLOGIZE
-2.0334 <s> I BELEIVE
-1.4314 <s> I DID
-1.7324 <s> I DIDNT
-1.1883 <s> I DO
-1.5563 <s> I DONT
-1.7324 <s> I FEEL
-2.0334 <s> I GUESS
-1.7324 <s> I HAD
-1.5563 <s> I HATE
-1.5563 <s> I HAVE
-1.7324 <s> I LIKE
-2.0334 <s> I LOVE
-2.0334 <s> I REALLY
-2.0334 <s> I SAID
-2.0334 <s> I THINK
-1.7324 <s> I WILL
-2.0334 <s> I WOULD
-0.3010 <s> IS IT
-0.5229 <s> IT IS
-0.6990 <s> IT TASTES
-0.3010 <s> ITS DELICIOUS
-0.6021 <s> JUST BECAUSE
-0.6021 <s> JUST TELL
-0.3010 <s> LEAVE ME
-0.3010 <s> LET US
-0.3010 <s> LIFE IS
-0.3010 <s> LOOK HERE
-0.3010 <s> MAYBE PIZZA
-0.3010 <s> MY NAME
-0.3010 <s> NEVER </s>
-0.3010 <s> NICE TO
-1.0792 <s> NO </s>
-1.0792 <s> NO BODY
-0.4771 <s> NO I
-0.3010 <s> NOT REALLY
-0.3010 <s> OF COURSE
-0.4260 <s> ORDER A
-0.9031 <s> ORDER ME
-0.3010 <s> OVER HERE
-0.3010 <s> PLACE AN
-0.3010 <s> PLAY SOME
-0.3010 <s> PLEASURE MEETING
-0.3010 <s> PROVE IT
-0.6021 <s> READ MY
-0.6021 <s> READ THE
-0.3010 <s> RIGHT NOW
-0.6021 <s> RUBY </s>
-0.6021 <s> RUBY ARE
-0.3010 <s> SAY SOMETHING
-0.3010 <s> SCHEDULE A
-0.6021 <s> SEND AN
-0.6021 <s> SEND ME
-0.3010 <s> SET UP
-0.3010 <s> SHEDULE AN
-0.3010 <s> SHUT UP
-0.3010 <s> SLEEP TIGHT
-0.6021 <s> SO WHAT
-0.6021 <s> SO WHATS
-0.6021 <s> STAY HERE
-0.6021 <s> STAY WHERE
-0.7782 <s> SWITCH OFF
-0.9542 <s> SWITCH ON
-0.6532 <s> SWITCH THE
-0.3010 <s> TAKE CARE
-0.3010 <s> TALK TO
-1.0414 <s> TELL HER
-1.0414 <s> TELL HIM
-0.4973 <s> TELL ME
-0.3010 <s> THANK YOU
-0.3010 <s> THANKS </s>
-0.5740 <s> THAT IS
-0.7782 <s> THAT WAS
-1.1761 <s> THAT WOULD
-0.6021 <s> TO MAKE
-0.6021 <s> TO SERVE
-0.3010 <s> TRY TO
-1.4472 <s> TURN AROUND
-0.8451 <s> TURN OFF
-0.8451 <s> TURN ON
-0.7482 <s> TURN THE
-1.4574 <s> WHAT ARE
-1.4574 <s> WHAT CAN
-1.9345 <s> WHAT DAY
-1.4574 <s> WHAT DID
-1.4574 <s> WHAT DO
-1.4574 <s> WHAT HAPPENS
-0.6335 <s> WHAT IS
-1.4574 <s> WHAT MAKES
-1.4574 <s> WHAT SHOULD
-1.9345 <s> WHAT TIME
-0.3010 <s> WHATS UP
-0.7782 <s> WHERE ARE
-1.0792 <s> WHERE DO
-0.7782 <s> WHERE IS
-1.0792 <s> WHERE WERE
-1.3010 <s> WHO AM
-1.3010 <s> WHO ARE
-1.3010 <s> WHO CREATED
-1.3010 <s> WHO DESIGNED
-1.3010 <s> WHO INVENTED
-0.6021 <s> WHO IS
-1.1461 <s> WHY </s>
-1.1461 <s> WHY ARE
-1.1461 <s> WHY DO
-1.1461 <s> WHY DOES
-1.1461 <s> WHY DOESNT
-1.1461 <s> WHY IS
-1.1461 <s> WHY NOT
-0.6021 <s> WRONG </s>
-0.6021 <s> WRONG ANSWER
-0.9031 <s> YES </s>
-0.6021 <s> YES I
-0.9031 <s> YES THEY
-0.5721 <s> YOU ARE
-1.0492 <s> YOU CAN
-1.7482 <s> YOU DID
-1.7482 <s> YOU HAVE
-1.7482 <s> YOU KNOW
-1.4472 <s> YOU SHOULD
-1.7482 <s> YOU SOUND
-1.7482 <s> YOU TELL
-1.7482 <s> YOU WANT
-0.3010 <s> YOUR FACE
-0.3010 A BAD DAY
-0.3010 A BITCH </s>
-0.3010 A HUMAN </s>
-0.3010 A JOKE </s>
-0.3010 A KIND </s>
-0.3010 A LARGE PIZZA
-0.3010 A MACHINE </s>
-0.3010 A MEDIUM PIZZA
-0.3010 A MEETING IN
-0.3010 A PIZZA </s>
-0.3010 A REBOOT </s>
-0.3010 A REMINDER </s>
-0.3010 A ROBOT </s>
-0.3010 A SENSE OF
-0.3010 A SMALL PIZZA
-0.3010 A SPECIAL ROBOT
-0.3010 A STORY </s>
-0.3010 A UNIQUE ROBOT
-0.3010 A VIRGIN </s>
-0.3010 A.M </s> </s>
-0.3010 ABOUT </s> </s>
-0.3010 ABOUT IT </s>
-0.3010 ABOUT MY FUTURE
-0.3010 ABOUT THIS </s>
-0.3010 ABOUT WHAT </s>
-0.3010 ABOUT WHO </s>
-0.3010 AFTER DEATH </s>
-0.3010 AFTER I DIE
-0.3010 AFTER WE DIE
-0.3010 AFTERNOON </s> </s>
-0.3010 AGE </s> </s>
-0.3010 AIR CONDITIONING </s>
-1.3802 ALARM AT EIGHT
-1.3802 ALARM AT ELEVEN
-1.3802 ALARM AT FIVE
-1.3802 ALARM AT FOUR
-1.3802 ALARM AT NINE
-1.3802 ALARM AT ONE
-1.3802 ALARM AT SEVEN
-1.3802 ALARM AT SIX
-1.3802 ALARM AT TEN
-1.3802 ALARM AT THREE
-1.3802 ALARM AT TWELVE
-1.3802 ALARM AT TWO
-0.3010 ALBUM </s> </s>
-0.3010 ALL THE TIME
-0.3010 ALONE </s> </s>
-0.3010 ALREADY TOLD YOU
-0.3010 AM </s> </s>
-0.6021 AM ASKING ABOUT
-0.6021 AM ASKING FOR
-0.3010 AM AWARE OF
-0.3010 AM DEPRESSED </s>
-0.3010 AM DEPRESSION </s>
-0.3010 AM FEELING SAD
-0.3010 AM GOING TO
-0.3010 AM HANDSOME </s>
-0.3010 AM HERE </s>
-0.3010 AM HUNGRY </s>
-0.7782 AM I </s>
-0.7782 AM I BEAUTIFUL
-0.7782 AM I HANDSOME
-0.3010 AM LEAVING </s>
-0.3010 AM ON THE
-0.3010 AM RIGHT HERE
-0.3010 AM SAYING </s>
-0.3010 AM SLEEPY </s>
-0.6021 AM SORRY </s>
-0.6021 AM SORRY I
-0.3010 AM SURE YOU
-0.3010 AM SURPRISED ANY
-0.3010 AMAZING </s> </s>
-0.3010 AN ALARM AT
-0.9031 AN EMAIL REMINDER
-0.4260 AN EMAIL TO
-0.3010 AN EVENT IN
-0.3010 AN ORDER FOR
-0.3010 ANNOYING </s> </s>
-0.3010 ANNOYING ME </s>
-0.3010 ANSWER </s> </s>
-0.3010 ANY BODY ABOUT
-0.3010 ANY FRIENDS </s>
-0.6021 ANY ONE LOVE
-0.6021 ANY ONE WOULD
-0.3010 ANY SLEEP </s>
-0.3010 APOLOGIZE </s> </s>
-0.3010 ARE </s> </s>
-0.9031 ARE A MACHINE
-0.4260 ARE A ROBOT
-0.3010 ARE ANNOYING ME
-0.6021 ARE BORING </s>
-0.6021 ARE BORING ME
-0.3010 ARE FUNNY </s>
-0.3010 ARE IN THE
-0.3010 ARE MEAN </s>
-0.3010 ARE MY PET
-0.6021 ARE NOT HELPFUL
-0.6021 ARE NOT VERY
-0.3010 ARE ONE OF
-0.6021 ARE SO ANNOYING
-0.6021 ARE SO CUTE
-0.3010 ARE STUPID </s>
-0.3010 ARE VERY HELPFUL
-0.3010 ARE WE </s>
-1.0212 ARE YOU </s>
-1.1461 ARE YOU A
-1.6232 ARE YOU DOING
-1.6232 ARE YOU FROM
-1.6232 ARE YOU HERE
-1.6232 ARE YOU HUMAN
-1.6232 ARE YOU INTELLIGENT
-1.6232 ARE YOU KIDDING
-1.6232 ARE YOU LISTENING
-1.6232 ARE YOU MARRIED
-1.6232 ARE YOU ONE
-1.6232 ARE YOU SMART
-1.3222 ARE YOU THERE
-1.6232 ARE YOU THINKING
-1.6232 ARE YOU UNDERSTANDING
-0.6021 ARE YOUR HOBBIES
-0.6021 ARE YOUR INTERESTS
-0.3010 AROUND </s> </s>
-0.3010 AROUND THE SUN
-0.6021 ASK YOU FOR
-0.6021 ASK YOU THAT
-0.3010 ASKING ABOUT </s>
-0.3010 ASKING FOR </s>
-1.2041 AT EIGHT A.M
-0.9031 AT EIGHT FIFTEEN
-0.9031 AT EIGHT FORTY
-1.2041 AT EIGHT P.M
-0.9031 AT EIGHT THIRTY
-1.2041 AT ELEVEN A.M
-0.9031 AT ELEVEN FIFTEEN
-0.9031 AT ELEVEN FORTY
-1.2041 AT ELEVEN P.M
-0.9031 AT ELEVEN THIRTY
-1.2041 AT FIVE A.M
-0.9031 AT FIVE FIFTEEN
-0.9031 AT FIVE FORTY
-1.2041 AT FIVE P.M
-0.9031 AT FIVE THIRTY
-1.2041 AT FOUR A.M
-0.9031 AT FOUR FIFTEEN
-0.9031 AT FOUR FORTY
-1.2041 AT FOUR P.M
-0.9031 AT FOUR THIRTY
-0.3010 AT NIGHT </s>
-1.2041 AT NINE A.M
-0.9031 AT NINE FIFTEEN
-0.9031 AT NINE FORTY
-1.2041 AT NINE P.M
-0.9031 AT NINE THIRTY
-1.2041 AT ONE A.M
-0.9031 AT ONE FIFTEEN
-0.9031 AT ONE FORTY
-1.2041 AT ONE P.M
-0.9031 AT ONE THIRTY
-1.2041 AT SEVEN A.M
-0.9031 AT SEVEN FIFTEEN
-0.9031 AT SEVEN FORTY
-1.2041 AT SEVEN P.M
-0.9031 AT SEVEN THIRTY
-1.2041 AT SIX A.M
-0.9031 AT SIX FIFTEEN
-0.9031 AT SIX FORTY
-1.2041 AT SIX P.M
-0.9031 AT SIX THIRTY
-1.2041 AT TEN A.M
-0.9031 AT TEN FIFTEEN
-0.9031 AT TEN FORTY
-1.2041 AT TEN P.M
-0.9031 AT TEN THIRTY
-1.2041 AT THREE A.M
-0.9031 AT THREE FIFTEEN
-0.9031 AT THREE FORTY
-1.2041 AT THREE P.M
-0.9031 AT THREE THIRTY
-1.2041 AT TWELVE A.M
-0.9031 AT TWELVE FIFTEEN
-0.9031 AT TWELVE FORTY
-1.2041 AT TWELVE P.M
-0.9031 AT TWELVE THIRTY
-1.2041 AT TWO A.M
-0.9031 AT TWO FIFTEEN
-0.9031 AT TWO FORTY
-1.2041 AT TWO P.M
-0.9031 AT TWO THIRTY
-0.3010 AWARE OF THAT
-0.3010 AWAY </s> </s>
-0.3010 AWAY NOW </s>
-0.3010 BACK </s> </s>
-0.3010 BACK TO TO
-0.3010 BAD DAY </s>
-0.3010 BE AMAZING </s>
-0.3010 BE BACK </s>
-0.3010 BE FRIENDS </s>
-0.3010 BE LATE </s>
-0.3010 BE NICE </s>
-0.3010 BE POLITE </s>
-0.3010 BE QUIET </s>
-0.3010 BE SO STUPID
-0.3010 BE STUPID SOME
-0.3010 BEAUTIFUL </s> </s>
-0.3010 BECAUSE </s> </s>
-1.0000 BECAUSE I DO
-1.0000 BECAUSE I HATE
-1.0000 BECAUSE I LIKE
-1.0000 BECAUSE I SAID
-1.0000 BECAUSE I WANT
-0.4260 BECAUSE YOU ARE
-0.9031 BECAUSE YOU LOOK
-0.3010 BED </s> </s>
-0.3010 BEEN </s> </s>
-0.3010 BEFORE </s> </s>
-0.6021 BEHAVE YOURSELF </s>
-0.6021 BEHAVE YOURSELF RUBY
-1.0792 BELEIVE IN DEATH
-1.0792 BELEIVE IN GHOSTS
-1.0792 BELEIVE IN GOD
-1.0792 BELEIVE IN HEAVEN
-1.0792 BELEIVE IN HELL
-1.0792 BELEIVE IN YOU
-0.3010 BELIEVE ME </s>
-0.3010 BELIEVE YOU </s>
-0.3010 BEST WEBSITE IN
-0.3010 BITCH </s> </s>
-0.3010 BODY ABOUT THIS
-0.3010 BODY LIKES ME
-0.3010 BOOK </s> </s>
-0.3010 BORING </s> </s>
-0.3010 BORING ME </s>
-0.3010 BORN </s> </s>
-0.3010 BREAKFAST TODAY </s>
-0.3010 BUT DO NOT
-0.3010 BUT DONT TELL
-0.3010 CALANDER </s> </s>
-0.6021 CAN BE SO
-0.6021 CAN BE STUPID
-0.3010 CAN DO IT
-0.6021 CAN TELL EVERYONE
-0.6021 CAN TELL ME
-1.4150 CAN YOU CLEAN
-1.1139 CAN YOU DO
-1.4150 CAN YOU HEAR
-1.4150 CAN YOU HURT
-1.4150 CAN YOU KILL
-0.9379 CAN YOU SEE
-1.4150 CAN YOU SUGGEST
-1.4150 CAN YOU TELL
-1.1139 CAN YOU TRAVEL
-0.3010 CANCER </s> </s>
-0.3010 CARE OF YOURSELF
-0.3010 CERTAINLY </s> </s>
-0.3010 CHANDELIER </s> </s>
-0.3010 CHARGING STATION </s>
-0.3010 CLEAN THE HOUSE
-0.3010 COLD </s> </s>
-0.3010 COLOR </s> </s>
-0.3010 COME </s> </s>
-0.3010 COME FROM </s>
-0.3010 COME ON </s>
-0.3010 CONDITIONING </s> </s>
-0.3010 COURSE </s> </s>
-0.3010 CREATED YOU </s>
-0.3010 CREATOR </s> </s>
-0.3010 CREATOR OF THE
-0.3010 CUTE </s> </s>
-0.3010 DADDY </s> </s>
-0.3010 DAY </s> </s>
-0.3010 DAY IS IT
-0.3010 DEATH </s> </s>
-0.3010 DELICIOUS </s> </s>
-0.3010 DEPRESSED </s> </s>
-0.3010 DEPRESSION </s> </s>
-0.3010 DESIGNED YOU </s>
-0.3010 DID </s> </s>
-0.6021 DID NOT ASK
-0.9031 DID NOT MEAN
-0.9031 DID NOT SAY
-0.6021 DID YOU HAVE
-1.0792 DID YOU UNDERSTAND
-0.7782 DID YOU UNDERTAND
-0.3010 DIDNT ASK YOU
-0.3010 DIE </s> </s>
-0.3010 DIFFERENT THAT OTHER
-0.7782 DIM THE CHANDELIER
-0.7782 DIM THE LIGHTS
-0.7782 DIM THE SPOTLIGHTS
-0.3010 DINNER TODAY </s>
-0.3010 DO </s> </s>
-0.3010 DO IT </s>
-1.3424 DO NOT </s>
-1.3424 DO NOT BELIEVE
-0.8653 DO NOT KNOW
-1.3424 DO NOT LIKE
-1.3424 DO NOT MIND
-1.3424 DO NOT TELL
-0.8653 DO NOT WANT
-0.7782 DO ROBOTS DIE
-0.7782 DO ROBOTS EAT
-0.7782 DO ROBOTS HAVE
-0.6021 DO SOMETHING FUNNY
-0.6021 DO SOMETHING INTERESTING
-0.3010 DO TODAY </s>
-0.3010 DO TONIGHT </s>
-0.3010 DO WHEN LIFE
-1.1335 DO YOU BELEIVE
-1.8325 DO YOU COME
-1.8325 DO YOU DO
-1.8325 DO YOU EAT
-1.8325 DO YOU EXIST
-1.8325 DO YOU GET
-1.5315 DO YOU HAVE
-1.8325 DO YOU LEARN
-1.0544 DO YOU LIKE
-1.8325 DO YOU LOVE
-1.8325 DO YOU MEAN
-1.5315 DO YOU NEED
-1.8325 DO YOU SEE
-1.5315 DO YOU SLEEP
-1.8325 DO YOU SPEAK
-1.5315 DO YOU THINK
-1.8325 DO YOU UNDERSTAND
-1.3554 DO YOU WANT
-1.8325 DO YOU YOU
-0.3010 DOES THE EARTH
-0.3010 DOESNT ANY ONE
-0.3010 DOING TODAY </s>
-0.3010 DONT </s> </s>
-0.6021 DONT KNOW </s>
-0.6021 DONT KNOW IT
-0.3010 DONT MIND </s>
-0.3010 DONT TELL ANY
-0.3010 DONT THINK SO
-0.3010 EARTH REVOLVE AROUND
-0.3010 EARTH ROUND </s>
-0.3010 EAT </s> </s>
-0.3010 EIGHT A.M </s>
-0.6021 EIGHT FIFTEEN A.M
-0.6021 EIGHT FIFTEEN P.M
-0.3010 EIGHT FORTY FIVE
-0.3010 EIGHT P.M </s>
-0.6021 EIGHT THIRTY A.M
-0.6021 EIGHT THIRTY P.M
-0.3010 ELEVEN A.M </s>
-0.6021 ELEVEN FIFTEEN A.M
-0.6021 ELEVEN FIFTEEN P.M
-0.3010 ELEVEN FORTY FIVE
-0.3010 ELEVEN P.M </s>
-0.6021 ELEVEN THIRTY A.M
-0.6021 ELEVEN THIRTY P.M
-0.3010 EMAIL MY WIFE
-0.3010 EMAIL REMINDER </s>
-0.7782 EMAIL TO MY
-0.7782 EMAIL TO MYSELF
-0.7782 EMAIL TO REMIND
-0.3010 EVENING </s> </s>
-0.3010 EVENT IN MY
-0.3010 EVERY DAY </s>
-0.3010 EVERYONE </s> </s>
-0.3010 EXACTLY WHAT I
-0.3010 EXIST </s> </s>
-0.3010 FACE </s> </s>
-0.3010 FAVORITE ALBUM </s>
-0.3010 FAVORITE BOOK </s>
-0.3010 FAVORITE COLOR </s>
-0.3010 FAVORITE MOVIE </s>
-0.3010 FAVORITE MUSIC </s>
-0.3010 FAVORITE PLACE IN
-0.3010 FAVORITE SONG </s>
-0.3010 FAVORITE WEBSITE </s>
-0.3010 FEED </s> </s>
-0.3010 FEEL SAD </s>
-0.3010 FEEL VERY SAD
-0.3010 FEELING SAD </s>
-0.3010 FEELINGS </s> </s>
-0.3010 FIFTEEN A.M </s>
-0.3010 FIFTEEN P.M </s>
-0.3010 FISH ARE IN
-0.3010 FIVE A.M </s>
-0.6021 FIVE FIFTEEN A.M
-0.6021 FIVE FIFTEEN P.M
-0.3010 FIVE FORTY FIVE
-0.3010 FIVE P.M </s>
-0.6021 FIVE THIRTY A.M
-0.6021 FIVE THIRTY P.M
-0.3010 FOR </s> </s>
-0.3010 FOR A PIZZA
-0.3010 FOR BREAKFAST TODAY
-0.3010 FOR DINNER TODAY
-0.3010 FOR LUNCH TODAY
-0.3010 FOR YOUR OPINION
-0.3010 FORGET WHAT I
-0.6021 FORTY FIVE A.M
-0.6021 FORTY FIVE P.M
-0.3010 FOUR A.M </s>
-0.6021 FOUR FIFTEEN A.M
-0.6021 FOUR FIFTEEN P.M
-0.3010 FOUR FORTY FIVE
-0.3010 FOUR P.M </s>
-0.6021 FOUR THIRTY A.M
-0.6021 FOUR THIRTY P.M
-0.3010 FRIENDS </s> </s>
-0.3010 FROM </s> </s>
-0.3010 FUCK OFF </s>
-0.3010 FUCK YOU </s>
-0.3010 FUNNY </s> </s>
-0.3010 FUTURE </s> </s>
-0.3010 GET ANY SLEEP
-0.3010 GET OUT OF
-0.3010 GHOSTS </s> </s>
-0.3010 GIVES YOU LEMONS
-0.3010 GO </s> </s>
-0.6021 GO AWAY </s>
-0.6021 GO AWAY NOW
-0.3010 GO BACK TO
-0.6021 GO OUT </s>
-0.6021 GO OUT WITH
-0.6021 GO TO BED
-0.6021 GO TO SLEEP
-0.3010 GOD </s> </s>
-0.3010 GOING TO KILL
-0.3010 GOOD </s> </s>
-0.3010 GOOD AFTERNOON </s>
-0.3010 GOOD EVENING </s>
-0.3010 GOOD MORNING </s>
-0.3010 GOOD NIGHT </s>
-0.3010 GOOD TO KNOW
-0.3010 GUESS SO </s>
-0.3010 HAD A BAD
-0.3010 HAD SEX BEFORE
-0.3010 HANDSOME </s> </s>
-0.7782 HAPPENS AFTER DEATH
-0.7782 HAPPENS AFTER I
-0.7782 HAPPENS AFTER WE
-0.3010 HAPPY </s> </s>
-0.3010 HATE IT </s>
-0.3010 HATE MY LIFE
-0.3010 HATE ROBOTS </s>
-0.3010 HATE YOU </s>
-0.3010 HAVE A SENSE
-0.3010 HAVE ANY FRIENDS
-0.3010 HAVE CANCER </s>
-0.3010 HAVE FEELINGS </s>
-0.7782 HAVE FOR BREAKFAST
-0.7782 HAVE FOR DINNER
-0.7782 HAVE FOR LUNCH
-0.3010 HAVE FRIENDS </s>
-0.6021 HAVE TO GO
-0.6021 HAVE TO LEAVE
-0.6021 HAVE YOU BEEN
-0.6021 HAVE YOU HAD
-0.3010 HEAR ME </s>
-0.3010 HEAVEN </s> </s>
-0.3010 HELL </s> </s>
-0.3010 HELLO </s> </s>
-0.3010 HELLO RUBY </s>
-0.3010 HELLO THERE </s>
-0.3010 HELPFUL </s> </s>
-0.6021 HER I AM
-0.6021 HER I WILL
-0.3010 HERE </s> </s>
-0.3010 HERE OR IS
-0.3010 HEY </s> </s>
-0.3010 HEY RUBY </s>
-0.3010 HEY THERE </s>
-0.3010 HI RUBY </s>
-0.6021 HIM I AM
-0.6021 HIM I WILL
-0.3010 HOBBIES </s> </s>
-0.3010 HOT IN HERE
-0.3010 HOUSE </s> </s>
-0.3010 HOW ARE YOU
-0.3010 HOW COME </s>
-0.3010 HOW DO YOU
-0.3010 HOW HAVE YOU
-0.3010 HOW IS THE
-0.6021 HOW MANY FISH
-0.6021 HOW MANY STARS
-0.3010 HOW OLD ARE
-0.6021 HOW SMART ARE
-0.6021 HOW SMART DO
-0.3010 HOW WAS YOUR
-0.3010 HUMAN </s> </s>
-0.3010 HUMOR </s> </s>
-0.3010 HUMOR ME </s>
-0.3010 HUNGRY </s> </s>
-0.3010 HURT ME </s>
-0.3010 HURT YOUR FEELINGS
-0.3010 I </s> </s>
-0.3010 I ALREADY TOLD
-1.6628 I AM </s>
-1.3617 I AM ASKING
-1.6628 I AM AWARE
-1.3617 I AM DEPRESSED
-1.6628 I AM DEPRESSION
-1.6628 I AM FEELING
-1.3617 I AM GOING
-1.6628 I AM HANDSOME
-1.6628 I AM HERE
-1.6628 I AM HUNGRY
-1.6628 I AM LEAVING
-1.3617 I AM ON
-1.6628 I AM RIGHT
-1.6628 I AM SAYING
-1.6628 I AM SLEEPY
-1.3617 I AM SORRY
-1.6628 I AM SURE
-1.6628 I AM SURPRISED
-0.3010 I APOLOGIZE </s>
-0.3010 I BEAUTIFUL </s>
-0.3010 I BELEIVE IN
-0.3010 I DID NOT
-0.3010 I DIDNT ASK
-0.3010 I DIE </s>
-1.1461 I DO </s>
-0.4472 I DO NOT
-1.4472 I DO TODAY
-1.4472 I DO TONIGHT
-1.0000 I DONT </s>
-0.6990 I DONT KNOW
-1.0000 I DONT MIND
-1.0000 I DONT THINK
-0.6021 I FEEL SAD
-0.6021 I FEEL VERY
-0.3010 I GUESS SO
-0.3010 I HAD A
-0.3010 I HANDSOME </s>
-0.9031 I HATE IT
-0.9031 I HATE MY
-0.9031 I HATE ROBOTS
-0.9031 I HATE YOU
-0.7782 I HAVE CANCER
-0.4771 I HAVE TO
-0.3010 I HURT YOUR
-0.3010 I JUST SAID
-0.4771 I LIKE IT
-0.7782 I LIKE THAT
-0.3010 I LOVE YOU
-0.3010 I MEANT </s>
-0.3010 I REALLY LIKE
-0.6021 I SAID </s>
-0.9031 I SAID SO
-0.9031 I SAID THAT
-0.3010 I THINK I
-0.3010 I WANT TO
-0.4260 I WILL BE
-0.9031 I WILL KILL
-0.3010 I WOULD LOVE
-0.3010 IMPOSSIBLE </s> </s>
-0.3010 IN DEATH </s>
-0.3010 IN GHOSTS </s>
-0.3010 IN GOD </s>
-0.3010 IN HEAVEN </s>
-0.3010 IN HELL </s>
-0.6021 IN HERE </s>
-0.6021 IN HERE OR
-0.3010 IN MY CALANDER
-1.0000 IN THE NEWS
-1.0000 IN THE OCEAN
-1.0000 IN THE SKY
-1.0000 IN THE WHOLE
-1.0000 IN THE WORLD
-0.3010 IN TIME </s>
-0.3010 IN YOU </s>
-0.3010 INTELLIGENT </s> </s>
-0.3010 INTERESTING </s> </s>
-0.3010 INTERESTS </s> </s>
-0.3010 INTERNET </s> </s>
-0.3010 INVENTED YOU </s>
-0.3010 INVENTOR </s> </s>
-0.3010 IS </s> </s>
-0.6021 IS A BITCH
-0.6021 IS A ROBOT
-0.3010 IS DELICIOUS </s>
-0.3010 IS EXACTLY WHAT
-0.3010 IS GOD </s>
-0.3010 IS HOT IN
-0.3010 IS IMPOSSIBLE </s>
-0.6021 IS IT </s>
-0.9031 IS IT HOT
-0.9031 IS IT JUST
-0.3010 IS MEAN </s>
-0.3010 IS NEW IN
-0.3010 IS NICE </s>
-0.6021 IS NOT POSSIBLE
-0.6021 IS NOT WHAT
-0.3010 IS SCARY </s>
-1.3424 IS THE BEST
-1.3424 IS THE CREATOR
-1.3424 IS THE EARTH
-1.3424 IS THE INTERNET
-1.3424 IS THE PROBLEM
-1.3424 IS THE PURPOSE
-1.3424 IS THE REMOTE
-1.3424 IS THE SECRET
-1.3424 IS THE TIME
-1.0414 IS THE WEATHER
-0.3010 IS VERY COLD
-1.5051 IS YOUR AGE
-1.5051 IS YOUR CREATOR
-1.5051 IS YOUR DADDY
-0.6021 IS YOUR FAVORITE
-1.5051 IS YOUR INVENTOR
-1.5051 IS YOUR MASTER
-1.5051 IS YOUR NAME
-1.5051 IS YOUR PURPOSE
-1.5051 IS YOUR SOFTWARE
-0.3010 IT </s> </s>
-0.3010 IT HOT IN
-0.7782 IT IS DELICIOUS
-0.7782 IT IS HOT
-0.7782 IT IS VERY
-0.3010 IT JUST ME
-0.3010 IT SOMETIME </s>
-0.6021 IT TASTES GOOD
-0.6021 IT TASTES REALLY
-0.3010 IT TOO </s>
-0.3010 ITS DELICIOUS </s>
-0.3010 JOKE </s> </s>
-0.3010 JUST BECAUSE </s>
-0.3010 JUST ME </s>
-0.3010 JUST SAID </s>
-0.3010 JUST TELL ME
-0.3010 KIDDING ME </s>
-0.3010 KILL A HUMAN
-0.3010 KILL MYSELF </s>
-0.3010 KILL YOU </s>
-0.3010 KIND </s> </s>
-0.3010 KNOW </s> </s>
-0.3010 KNOW IT </s>
-0.3010 KNOW WHAT </s>
-0.3010 LANGUAGES </s> </s>
-0.3010 LARGE PIZZA </s>
-0.3010 LATE </s> </s>
-0.3010 LEARN </s> </s>
-0.3010 LEAVE </s> </s>
-0.3010 LEAVE ME ALONE
-0.3010 LEAVING </s> </s>
-0.3010 LEMONS </s> </s>
-0.3010 LET US TALK
-0.3010 LIFE </s> </s>
-0.3010 LIFE GIVES YOU
-0.3010 LIFE IS A
-0.3010 LIGHTS </s> </s>
-0.3010 LIGHTS OFF </s>
-0.3010 LIGHTS ON </s>
-0.3010 LIKE </s> </s>
-0.3010 LIKE A ROBOT
-0.6021 LIKE IT </s>
-0.6021 LIKE IT TOO
-0.3010 LIKE LISTENING TO
-0.3010 LIKE MAKING MONEY
-0.3010 LIKE ME </s>
-0.3010 LIKE MONEY </s>
-0.3010 LIKE PETS </s>
-0.3010 LIKE SEX </s>
-0.3010 LIKE THAT </s>
-0.3010 LIKE YOU </s>
-0.3010 LIKES ME </s>
-0.6021 LISTENING TO ME
-0.6021 LISTENING TO MUSIC
-0.3010 LOOK HERE </s>
-0.3010 LOOK LIKE A
-0.3010 LOVE ME </s>
-0.3010 LOVE TO </s>
-0.3010 LOVE YOU </s>
-0.3010 LUNCH TODAY </s>
-0.3010 MACHINE </s> </s>
-0.3010 MAKE ME HAPPY
-0.7782 MAKES YOU A
-0.7782 MAKES YOU DIFFERENT
-0.7782 MAKES YOU SPECIAL
-0.3010 MAKING MONEY </s>
-0.3010 MANY FISH ARE
-0.3010 MANY STARS ARE
-0.3010 MARRIED </s> </s>
-0.3010 MASTER </s> </s>
-0.3010 MAYBE PIZZA </s>
-0.3010 ME </s> </s>
-0.6021 ME A JOKE
-0.9031 ME A PIZZA
-0.9031 ME A STORY
-0.6021 ME ABOUT IT
-0.6021 ME ABOUT MY
-0.3010 ME ALONE </s>
-0.3010 ME AN EMAIL
-0.3010 ME HAPPY </s>
-0.3010 ME OF </s>
-0.6021 ME SOMETHING FUNNY
-0.6021 ME SOMETHING INTERESTING
-0.3010 ME THINGS </s>
-0.3010 ME TO REBOOT
-0.3010 MEAN </s> </s>
-0.3010 MEAN IT </s>
-0.3010 MEANT </s> </s>
-0.3010 MEDIUM PIZZA </s>
-0.3010 MEET YOU </s>
-0.3010 MEETING IN MY
-0.3010 MEETING YOU </s>
-0.3010 MIND </s> </s>
-0.3010 MONEY </s> </s>
-0.3010 MORNING </s> </s>
-0.3010 MOVIE </s> </s>
-0.3010 MUSIC </s> </s>
-0.3010 MY CALANDER </s>
-0.3010 MY FUTURE </s>
-0.3010 MY LIFE </s>
-0.3010 MY NAME IS
-0.3010 MY NEWS FEED
-0.3010 MY PET </s>
-0.3010 MY WIFE </s>
-0.3010 MYSELF </s> </s>
-0.3010 NAME </s> </s>
-0.3010 NAME IS </s>
-0.3010 NEED A REBOOT
-0.3010 NEED ME TO
-0.3010 NEVER </s> </s>
-0.3010 NEW IN THE
-0.3010 NEWS </s> </s>
-0.3010 NEWS FEED </s>
-0.3010 NICE </s> </s>
-0.3010 NICE TO MEET
-0.3010 NIGHT </s> </s>
-0.3010 NINE A.M </s>
-0.6021 NINE FIFTEEN A.M
-0.6021 NINE FIFTEEN P.M
-0.3010 NINE FORTY FIVE
-0.3010 NINE P.M </s>
-0.6021 NINE THIRTY A.M
-0.6021 NINE THIRTY P.M
-0.3010 NO </s> </s>
-0.3010 NO BODY LIKES
-0.6021 NO I DO
-0.6021 NO I DONT
-0.3010 NOT </s> </s>
-0.3010 NOT ASK YOU
-0.3010 NOT BELIEVE YOU
-0.3010 NOT HELPFUL </s>
-0.4771 NOT KNOW </s>
-0.7782 NOT KNOW IT
-0.3010 NOT LIKE THAT
-0.3010 NOT MEAN IT
-0.3010 NOT MIND </s>
-0.3010 NOT NICE </s>
-0.3010 NOT POSSIBLE </s>
-0.3010 NOT REALLY </s>
-0.3010 NOT SAY THAT
-0.3010 NOT TELL ANY
-0.3010 NOT VERY HELPFUL
-0.4771 NOT WANT TO
-0.7782 NOT WANT TO</S>
-0.3010 NOT WHAT I
-0.3010 NOW </s> </s>
-0.3010 OCEAN </s> </s>
-0.3010 OF </s> </s>
-0.3010 OF A KIND
-0.3010 OF COURSE </s>
-0.3010 OF HERE </s>
-0.3010 OF HUMOR </s>
-0.3010 OF LIFE </s>
-0.3010 OF THAT </s>
-0.3010 OF THE UNIVERSE
-0.3010 OF YOURSELF </s>
-0.3010 OFF </s> </s>
-0.3010 OFF </s><s> </s>
-0.8451 OFF THE AIR
-1.1461 OFF THE CHANDELIER
-0.8451 OFF THE LIGHTS
-0.8451 OFF THE TELEVISION
-0.3010 OLD ARE YOU
-0.3010 ON </s> </s>
-1.2041 ON THE AIR
-1.2041 ON THE CHANDELIER
-0.9031 ON THE LIGHTS
-0.9031 ON THE TELEVISION
-0.9031 ON THE WAY
-0.3010 ONE A.M </s>
-0.6021 ONE FIFTEEN A.M
-0.6021 ONE FIFTEEN P.M
-0.3010 ONE FORTY FIVE
-0.3010 ONE LOVE ME
-0.3010 ONE OF A
-0.3010 ONE P.M </s>
-0.6021 ONE THIRTY A.M
-0.6021 ONE THIRTY P.M
-0.3010 ONE WOULD LIKE
-0.3010 OPINION </s> </s>
-0.3010 OR IS IT
-0.7782 ORDER A LARGE
-0.7782 ORDER A MEDIUM
-0.7782 ORDER A SMALL
-0.3010 ORDER FOR A
-0.3010 ORDER ME A
-0.3010 OTHER LANGUAGES </s>
-0.3010 OTHER ROBOTS </s>
-0.3010 OUT </s> </s>
-0.3010 OUT OF HERE
-0.3010 OUT WITH ME
-0.3010 OVER HERE </s>
-0.3010 P.M </s> </s>
-0.3010 PET </s> </s>
-0.3010 PETS </s> </s>
-0.3010 PIZZA </s> </s>
-0.3010 PLACE AN ORDER
-0.3010 PLACE IN THE
-0.3010 PLAY SOME MUSIC
-0.3010 PLEASURE MEETING YOU
-0.3010 POLITE </s> </s>
-0.3010 POSSIBLE </s> </s>
-0.3010 PROBLEM </s> </s>
-0.3010 PROVE IT </s>
-0.3010 PURPOSE </s> </s>
-0.3010 PURPOSE OF LIFE
-0.3010 QUIET </s> </s>
-0.3010 READ MY NEWS
-0.3010 READ THE NEWS
-0.3010 REALLY </s> </s>
-0.3010 REALLY GOOD </s>
-0.3010 REALLY LIKE YOU
-0.3010 REBOOT </s> </s>
-0.3010 REBOOT YOU </s>
-0.3010 REMIND ME OF
-0.3010 REMINDER </s> </s>
-0.3010 REMOTE </s> </s>
-0.3010 REVOLVE AROUND THE
-0.3010 RIGHT HERE </s>
-0.3010 RIGHT NOW </s>
-0.3010 ROBOT </s> </s>
-0.3010 ROBOTS </s> </s>
-0.3010 ROBOTS DIE </s>
-0.3010 ROBOTS EAT </s>
-0.3010 ROBOTS HAVE FEELINGS
-0.3010 ROUND </s> </s>
-0.3010 RUBY </s> </s>
-0.3010 RUBY ARE YOU
-0.3010 RUDE </s> </s>
-0.3010 RUDE RUBY </s>
-0.3010 SAD </s> </s>
-0.3010 SAID </s> </s>
-0.3010 SAID SO </s>
-0.3010 SAID THAT </s>
-0.6021 SAY SOMETHING FUNNY
-0.6021 SAY SOMETHING INTERESTING
-0.3010 SAY THAT </s>
-0.3010 SAYING </s> </s>
-0.3010 SCARY </s> </s>
-0.3010 SCHEDULE A MEETING
-0.3010 SECRET OF THE
-0.3010 SEE </s> </s>
-0.3010 SEE ME </s>
-0.3010 SEE THE FUTURE
-0.3010 SEND AN EMAIL
-0.3010 SEND ME AN
-0.3010 SENSE OF HUMOR
-0.3010 SERVE ME </s>
-2.2878 SET UP A
-0.3055 SET UP AN
-0.3010 SEVEN A.M </s>
-0.6021 SEVEN FIFTEEN A.M
-0.6021 SEVEN FIFTEEN P.M
-0.3010 SEVEN FORTY FIVE
-0.3010 SEVEN P.M </s>
-0.6021 SEVEN THIRTY A.M
-0.6021 SEVEN THIRTY P.M
-0.3010 SEX </s> </s>
-0.3010 SEX BEFORE </s>
-0.3010 SHEDULE AN EVENT
-0.3010 SHOULD I DO
-0.3010 SHOULD TRY IT
-0.3010 SHUT UP </s>
-0.3010 SIX A.M </s>
-0.6021 SIX FIFTEEN A.M
-0.6021 SIX FIFTEEN P.M
-0.3010 SIX FORTY FIVE
-0.3010 SIX P.M </s>
-0.6021 SIX THIRTY A.M
-0.6021 SIX THIRTY P.M
-0.3010 SKY </s> </s>
-0.3010 SLEEP </s> </s>
-0.3010 SLEEP AT NIGHT
-0.3010 SLEEP TIGHT </s>
-0.3010 SLEEPY </s> </s>
-0.3010 SMALL PIZZA </s>
-0.3010 SMART </s> </s>
-0.3010 SMART ARE YOU
-0.3010 SMART DO YOU
-0.3010 SNOW </s> </s>
-0.3010 SO </s> </s>
-0.3010 SO ANNOYING </s>
-0.3010 SO CUTE </s>
-0.3010 SO STUPID SOME
-0.3010 SO WHAT IS
-0.3010 SO WHATS THE
-0.3010 SOFTWARE VERSION </s>
-0.3010 SOME MUSIC </s>
-0.3010 SOME TIMES </s>
-0.3010 SOMETHING FUNNY </s>
-0.3010 SOMETHING INTERESTING </s>
-0.3010 SOMETHING TO DO
-0.3010 SOMETIME </s> </s>
-0.3010 SONG </s> </s>
-0.3010 SORRY </s> </s>
-0.3010 SORRY I HURT
-0.3010 SOUND LIKE A
-0.3010 SPEAK OTHER LANGUAGES
-0.3010 SPECIAL </s> </s>
-0.3010 SPECIAL ROBOT </s>
-0.3010 SPOTLIGHTS </s> </s>
-0.3010 STARS ARE IN
-0.3010 STATION </s> </s>
-0.3010 STAY HERE </s>
-0.3010 STAY WHERE YOU
-0.3010 STORY </s> </s>
-0.3010 STUPID </s> </s>
-0.3010 STUPID SOME TIMES
-0.3010 SUGGEST SOMETHING TO
-0.3010 SUN </s> </s>
-0.3010 SURE YOU CAN
-0.3010 SURPRISED ANY ONE
-0.3010 SWITCH OFF THE
-0.3010 SWITCH ON THE
-0.6021 SWITCH THE LIGHTS
-0.6021 SWITCH THE TELEVISION
-0.3010 TAKE CARE OF
-0.3010 TALK </s> </s>
-0.3010 TALK TO ME
-0.3010 TASTES GOOD </s>
-0.3010 TASTES REALLY GOOD
-0.3010 TELEVISION </s> </s>
-0.6021 TELEVISION OFF </s>
-0.6021 TELEVISION OFF </s><s>
-0.3010 TELEVISION ON </s>
-0.3010 TELL ANY BODY
-0.3010 TELL EVERYONE </s>
-0.3010 TELL HER I
-0.3010 TELL HIM I
-0.8653 TELL ME </s>
-0.8653 TELL ME A
-1.0414 TELL ME ABOUT
-1.0414 TELL ME SOMETHING
-1.3424 TELL ME THINGS
-0.3010 TEN A.M </s>
-0.6021 TEN FIFTEEN A.M
-0.6021 TEN FIFTEEN P.M
-0.3010 TEN FORTY FIVE
-0.3010 TEN P.M </s>
-0.6021 TEN THIRTY A.M
-0.6021 TEN THIRTY P.M
-0.3010 THANK YOU </s>
-0.3010 THANKS </s> </s>
-0.3010 THAT </s> </s>
-0.9031 THAT IS EXACTLY
-1.2041 THAT IS IMPOSSIBLE
-1.2041 THAT IS MEAN
-1.2041 THAT IS NICE
-0.9031 THAT IS NOT
-1.2041 THAT IS SCARY
-0.3010 THAT OTHER ROBOTS
-0.5229 THAT WAS NOT
-0.6990 THAT WAS RUDE
-0.3010 THAT WOULD BE
-0.3010 THE AIR CONDITIONING
-0.3010 THE BEST WEBSITE
-0.3010 THE CHANDELIER </s>
-0.3010 THE CREATOR OF
-0.6021 THE EARTH REVOLVE
-0.6021 THE EARTH ROUND
-0.3010 THE FUTURE </s>
-0.3010 THE HOUSE </s>
-0.3010 THE INTERNET </s>
-0.6021 THE LIGHTS </s>
-1.0000 THE LIGHTS OFF
-0.8239 THE LIGHTS ON
-0.3010 THE NEWS </s>
-0.3010 THE OCEAN </s>
-0.3010 THE PROBLEM </s>
-0.3010 THE PURPOSE OF
-0.3010 THE REMOTE </s>
-0.3010 THE SECRET OF
-0.3010 THE SKY </s>
-0.3010 THE SNOW </s>
-0.3010 THE SPOTLIGHTS </s>
-0.3010 THE SUN </s>
-0.6021 THE TELEVISION </s>
-0.9031 THE TELEVISION OFF
-0.9031 THE TELEVISION ON
-0.3010 THE TIME </s>
-0.3010 THE UNIVERSE </s>
-0.3010 THE WAY </s>
-0.6021 THE WEATHER LIKE
-0.6021 THE WEATHER TODAY
-0.3010 THE WHOLE WORLD
-0.3010 THE WORLD </s>
-0.3010 THERE </s> </s>
-0.3010 THEY DO </s>
-0.3010 THINGS </s> </s>
-0.3010 THINK I AM
-0.3010 THINK SO </s>
-0.3010 THINK YOU ARE
-0.3010 THINKING ABOUT </s>
-0.3010 THIRTY A.M </s>
-0.3010 THIRTY P.M </s>
-0.3010 THIS </s> </s>
-0.3010 THREE A.M </s>
-0.6021 THREE FIFTEEN A.M
-0.6021 THREE FIFTEEN P.M
-0.3010 THREE FORTY FIVE
-0.3010 THREE P.M </s>
-0.6021 THREE THIRTY A.M
-0.6021 THREE THIRTY P.M
-0.3010 TIGHT </s> </s>
-0.3010 TIME </s> </s>
-0.3010 TIME IS IT
-0.3010 TIMES </s> </s>
-0.3010 TO </s> </s>
-0.6021 TO BE FRIENDS
-0.6021 TO BE POLITE
-0.3010 TO BED </s>
-0.3010 TO DO </s>
-0.7782 TO GO </s>
-0.4771 TO GO OUT
-0.6021 TO KILL MYSELF
-0.6021 TO KILL YOU
-0.3010 TO KNOW </s>
-0.3010 TO LEAVE </s>
-0.3010 TO MAKE ME
-0.3010 TO ME </s>
-0.3010 TO MEET YOU
-0.3010 TO MUSIC </s>
-0.3010 TO MY WIFE
-0.3010 TO MYSELF </s>
-0.3010 TO REBOOT YOU
-0.3010 TO REMIND ME
-0.3010 TO SERVE ME
-0.3010 TO SLEEP </s>
-0.3010 TO THE FUTURE
-0.3010 TO TO YOUR
-0.3010 TO YOUR CHARGING
-0.3010 TODAY </s> </s>
-0.3010 TOLD YOU </s>
-0.3010 TONIGHT </s> </s>
-0.3010 TOO </s> </s>
-0.3010 TRAVEL IN TIME
-0.3010 TRAVEL TO THE
-0.6021 TRY IT </s>
-0.6021 TRY IT SOMETIME
-0.3010 TRY TO BE
-0.3010 TURN AROUND </s>
-0.3010 TURN OFF THE
-0.3010 TURN ON THE
-0.5229 TURN THE LIGHTS
-0.6990 TURN THE TELEVISION
-0.3010 TWELVE A.M </s>
-0.6021 TWELVE FIFTEEN A.M
-0.6021 TWELVE FIFTEEN P.M
-0.3010 TWELVE FORTY FIVE
-0.3010 TWELVE P.M </s>
-0.6021 TWELVE THIRTY A.M
-0.6021 TWELVE THIRTY P.M
-0.3010 TWO A.M </s>
-0.6021 TWO FIFTEEN A.M
-0.6021 TWO FIFTEEN P.M
-0.3010 TWO FORTY FIVE
-0.3010 TWO P.M </s>
-0.6021 TWO THIRTY A.M
-0.6021 TWO THIRTY P.M
-0.3010 UNDERSTAND ME </s>
-0.3010 UNDERSTAND WHAT I
-0.3010 UNDERSTANDING ME </s>
-0.3010 UNDERTAND WHAT I
-0.3010 UNIQUE ROBOT </s>
-0.3010 UNIVERSE </s> </s>
-0.3010 UP </s> </s>
-0.3010 UP A REMINDER
-0.3010 UP AN ALARM
-0.3010 US TALK </s>
-0.3010 VERSION </s> </s>
-0.3010 VERY COLD </s>
-0.3010 VERY HELPFUL </s>
-0.3010 VERY SAD </s>
-0.3010 VIRGIN </s> </s>
-0.3010 WANT </s> </s>
-0.6021 WANT TO </s>
-1.0792 WANT TO BE
-0.7782 WANT TO GO
-0.3010 WANT TO</S> </s>
-0.7782 WAS NOT HELPFUL
-0.7782 WAS NOT NICE
-0.7782 WAS NOT VERY
-0.6021 WAS RUDE </s>
-0.6021 WAS RUDE RUBY
-0.3010 WAS YOUR DAY
-0.3010 WAY </s> </s>
-0.3010 WE </s> </s>
-0.3010 WE DIE </s>
-0.3010 WEATHER LIKE </s>
-0.3010 WEATHER TODAY </s>
-0.3010 WEBSITE </s> </s>
-0.3010 WEBSITE IN THE
-0.3010 WERE YOU BORN
-0.3010 WHAT </s> </s>
-0.7782 WHAT ARE YOU
-0.4771 WHAT ARE YOUR
-0.3010 WHAT CAN YOU
-0.3010 WHAT DAY IS
-0.3010 WHAT DID YOU
-0.3010 WHAT DO YOU
-0.3010 WHAT HAPPENS AFTER
-0.6690 WHAT I AM
-1.1461 WHAT I JUST
-1.1461 WHAT I MEANT
-0.8451 WHAT I SAID
-1.6232 WHAT IS A
-1.6232 WHAT IS NEW
-0.7782 WHAT IS THE
-0.5441 WHAT IS YOUR
-0.3010 WHAT MAKES YOU
-0.3010 WHAT SHOULD I
-0.3010 WHAT TIME IS
-0.3010 WHATS THE PROBLEM
-0.3010 WHATS UP </s>
-0.3010 WHEN LIFE GIVES
-0.6021 WHERE ARE WE
-0.6021 WHERE ARE YOU
-0.3010 WHERE DO YOU
-0.6021 WHERE IS GOD
-0.6021 WHERE IS THE
-0.3010 WHERE WERE YOU
-0.3010 WHERE YOU ARE
-0.3010 WHO </s> </s>
-0.3010 WHO AM I
-0.3010 WHO ARE YOU
-0.3010 WHO CREATED YOU
-0.3010 WHO DESIGNED YOU
-0.3010 WHO INVENTED YOU
-1.0000 WHO IS THE
-0.3979 WHO IS YOUR
-0.3010 WHOLE WORLD </s>
-0.3010 WHY </s> </s>
-0.3010 WHY ARE YOU
-0.3010 WHY DO YOU
-0.3010 WHY DOES THE
-0.3010 WHY DOESNT ANY
-0.3010 WHY IS THE
-0.3010 WHY NOT </s>
-0.3010 WIFE </s> </s>
-0.7782 WILL BE BACK
-0.4771 WILL BE LATE
-0.3010 WILL KILL YOU
-0.3010 WITH ME </s>
-0.3010 WORLD </s> </s>
-0.6021 WOULD BE AMAZING
-0.6021 WOULD BE NICE
-0.3010 WOULD LIKE YOU
-0.3010 WOULD LOVE TO
-0.3010 WRONG </s> </s>
-0.3010 WRONG ANSWER </s>
-0.3010 YES </s> </s>
-0.6021 YES I AM
-0.6021 YES I DO
-0.3010 YES THEY DO
-0.3010 YOU </s> </s>
-0.9031 YOU A ROBOT
-0.9031 YOU A SPECIAL
-0.9031 YOU A UNIQUE
-0.9031 YOU A VIRGIN
-1.3010 YOU ARE </s>
-1.0000 YOU ARE A
-1.6021 YOU ARE ANNOYING
-1.3010 YOU ARE BORING
-1.6021 YOU ARE FUNNY
-1.6021 YOU ARE MEAN
-1.6021 YOU ARE MY
-1.3010 YOU ARE NOT
-1.6021 YOU ARE ONE
-1.3010 YOU ARE SO
-1.3010 YOU ARE STUPID
-1.6021 YOU ARE VERY
-0.3010 YOU BEEN </s>
-0.3010 YOU BELEIVE IN
-0.3010 YOU BORN </s>
-0.7782 YOU CAN BE
-0.7782 YOU CAN DO
-0.7782 YOU CAN TELL
-0.3010 YOU CLEAN THE
-0.3010 YOU COME FROM
-0.3010 YOU DID </s>
-0.3010 YOU DIFFERENT THAT
-0.4771 YOU DO </s>
-0.7782 YOU DO WHEN
-0.3010 YOU DOING TODAY
-0.3010 YOU EAT </s>
-0.3010 YOU EXIST </s>
-0.3010 YOU FOR YOUR
-0.3010 YOU FROM </s>
-0.3010 YOU GET ANY
-0.3010 YOU HAD SEX
-1.0792 YOU HAVE A
-1.0792 YOU HAVE ANY
-0.6021 YOU HAVE FOR
-1.0792 YOU HAVE FRIENDS
-0.3010 YOU HEAR ME
-0.3010 YOU HERE </s>
-0.3010 YOU HUMAN </s>
-0.3010 YOU HURT ME
-0.3010 YOU INTELLIGENT </s>
-0.3010 YOU KIDDING ME
-0.3010 YOU KILL A
-0.3010 YOU KNOW WHAT
-0.3010 YOU LEARN </s>
-0.3010 YOU LEMONS </s>
-1.0792 YOU LIKE LISTENING
-1.0792 YOU LIKE MAKING
-1.0792 YOU LIKE ME
-1.0792 YOU LIKE MONEY
-1.0792 YOU LIKE PETS
-1.0792 YOU LIKE SEX
-0.3010 YOU LISTENING TO
-0.3010 YOU LOOK LIKE
-0.3010 YOU LOVE ME
-0.3010 YOU MARRIED </s>
-0.3010 YOU MEAN </s>
-0.6021 YOU NEED A
-0.6021 YOU NEED ME
-0.3010 YOU ONE OF
-0.9031 YOU SEE </s>
-0.6021 YOU SEE ME
-0.9031 YOU SEE THE
-0.3010 YOU SHOULD TRY
-0.6021 YOU SLEEP </s>
-0.6021 YOU SLEEP AT
-0.3010 YOU SMART </s>
-0.3010 YOU SOUND LIKE
-0.3010 YOU SPEAK OTHER
-0.3010 YOU SPECIAL </s>
-0.3010 YOU SUGGEST SOMETHING
-0.3010 YOU TELL ME
-0.3010 YOU THAT </s>
-0.3010 YOU THE SNOW
-0.3010 YOU THERE </s>
-0.6021 YOU THINK I
-0.6021 YOU THINK YOU
-0.3010 YOU THINKING ABOUT
-0.6021 YOU TRAVEL IN
-0.6021 YOU TRAVEL TO
-0.6021 YOU UNDERSTAND ME
-0.6021 YOU UNDERSTAND WHAT
-0.3010 YOU UNDERSTANDING ME
-0.3010 YOU UNDERTAND WHAT
-0.9031 YOU WANT </s>
-0.4260 YOU WANT TO
-0.3010 YOU YOU THE
-0.3010 YOUR AGE </s>
-0.3010 YOUR CHARGING STATION
-0.3010 YOUR CREATOR </s>
-0.3010 YOUR DADDY </s>
-0.3010 YOUR DAY </s>
-0.3010 YOUR FACE </s>
-1.2041 YOUR FAVORITE ALBUM
-1.2041 YOUR FAVORITE BOOK
-1.2041 YOUR FAVORITE COLOR
-1.2041 YOUR FAVORITE MOVIE
-1.2041 YOUR FAVORITE MUSIC
-1.2041 YOUR FAVORITE PLACE
-1.2041 YOUR FAVORITE SONG
-1.2041 YOUR FAVORITE WEBSITE
-0.3010 YOUR FEELINGS </s>
-0.3010 YOUR HOBBIES </s>
-0.3010 YOUR INTERESTS </s>
-0.3010 YOUR INVENTOR </s>
-0.3010 YOUR MASTER </s>
-0.3010 YOUR NAME </s>
-0.3010 YOUR OPINION </s>
-0.3010 YOUR PURPOSE </s>
-0.3010 YOUR SOFTWARE VERSION
-0.3010 YOURSELF </s> </s>
-0.3010 YOURSELF RUBY </s>

\end\
